
\data\
ngram 1=18
ngram 2=243
ngram 3=758
ngram 4=336
ngram 5=33

\1-grams:
-2.334202	</s>
-99	<s>
-1.259569	DDDD	1.224455
-1.075924	DDDS	1.054022
-0.9362624	DDSD	0.9192288
-0.9109565	DDSS	0.8948693
-1.126703	DSDD	1.100571
-0.9631345	DSDS	0.9450363
-0.9395318	DSSD	0.9223721
-0.8851098	DSSS	0.8699365
-1.629837	SDDD	0.9687143
-1.551551	SDDS	0.7959638
-1.444901	SDSD	0.8079707
-1.386034	SDSS	1.339665
-1.915073	SSDD	0.6891865
-1.774894	SSDS	0.6367862
-1.790134	SSSD	1.005823
-1.814047	SSSS	0.2769603

\2-grams:
-1.313867	DDDD DDDD	-0.1605311
-1.083418	DDDD DDDS	-0.08973143
-0.8825034	DDDD DDSD	0.3782505
-0.9714445	DDDD DDSS	0.0321157
-1.058595	DDDD DSDD	-0.03369556
-0.933656	DDDD DSDS	0.1262332
-0.9916479	DDDD DSSD	-0.05472383
-1.012837	DDDD DSSS	0.00582689
-2.012837	DDDD SDDD
-1.836746	DDDD SDDS
-1.535716	DDDD SDSD	-0.07883394
-1.313867	DDDD SDSS	-0.02107709
-2.313867	DDDD SSDD
-1.711807	DDDD SSDS	-0.1083395
-2.012837	DDDD SSSD
-1.836746	DDDD SSSS
-1.162081	DDDS DDDD	0.01632559
-1.253851	DDDS DDDS	-0.12752
-0.9528209	DDDS DDSD	-0.02238077
-0.9279974	DDDS DDSS	0.07215989
-1.08636	DDDS DSDD	0.1410854
-1.122572	DDDS DSDS	0.06916822
-0.9657859	DDDS DSSD	-0.03059366
-0.8310874	DDDS DSSS	0.07920444
-1.58121	DDDS SDDD	-0.04244894
-1.639202	DDDS SDDS	-0.03193282
-1.308209	DDDS SDSD	0.03164881
-1.253851	DDDS SDSS	0.02653202
-2.18327	DDDS SSDD
-2.4843	DDDS SSDS
-2.007179	DDDS SSSD	-0.1699309
-2.18327	DDDS SSSS
-1.156695	DDSD DDDD	0.04904944
-1.00631	DDSD DDDS	0.142485
-0.9756407	DDSD DDSD	-0.01921967
-0.9563355	DDSD DDSS	0.3027254
-1.156695	DDSD DSDD	0.189427
-1.062791	DDSD DSDS	0.08504492
-0.9563355	DDSD DSSD	0.4621352
-0.8556653	DDSD DSSS	0.2084659
-1.50515	DDSD SDDD	-0.05249088
-1.619093	DDSD SDDS	-0.06472532
-1.472965	DDSD SDSD	-0.02892047
-1.664851	DDSD SDSS	-0.05661541
-1.920123	DDSD SSDD
-2.017033	DDSD SSDS	-0.1148704
-1.773995	DDSD SSSD	-0.05380123
-1.664851	DDSD SSSS	-0.00663057
-1.263241	DDSS DDDD	0.137776
-1.111974	DDSS DDDS	0.1651243
-0.9713548	DDSS DDSD	0.2297909
-0.8875778	DDSS DDSS	0.1553722
-1.245513	DDSS DSDD	0.04294884
-1.020203	DDSS DSDS	-0.01935661
-0.90309	DDSS DSSD	-0.1240536
-0.8952646	DDSS DSSS	0.3114044
-1.564271	DDSS SDDD	0.0528523
-1.564271	DDSS SDDS	-0.1276622
-1.497325	DDSS SDSD	-0.04925236
-1.529509	DDSS SDSS	-0.2296577
-1.944483	DDSS SSDD	-0.05897787
-1.643453	DDSS SSDS	-0.1549019
-1.68921	DDSS SSSD	-0.02955524
-1.68921	DDSS SSSS	0.02616193
-1.233631	DSDD DDDD	-0.06674597
-1.323807	DSDD DDDS	0.02373607
-0.9192366	DSDD DDSD	-0.1180993
-1.006387	DSDD DDSS	0.1128871
-1.291623	DSDD DSDD	0.005315803
-0.9192366	DSDD DSDS	0.03084442
-0.857967	DSDD DSSD	0.1366073
-0.8466859	DSDD DSSS	-0.04860342
-1.960629	DSDD SDDD
-1.483508	DSDD SDDS	-0.14321
-1.659599	DSDD SDSD	-0.05807872
-1.358569	DSDD SDSS	-0.1031618
-1.738781	DSDD SSDD	-0.1539534
-2.437751	DSDD SSDS
-1.960629	DSDD SSSD
-1.659599	DSDD SSSS	-0.0666285
-1.479343	DSDS DDDD	0.03336918
-1.036984	DSDS DDDS	0.212825
-1.002221	DSDS DDSD	0.1761239
-0.8857159	DSDS DDSS	0.02175725
-1.195346	DSDS DSDD	-0.01823568
-0.9211882	DSDS DSDS	0.2339248
-1.013502	DSDS DSSD	0.1635502
-0.9211882	DSDS DSSS	0.3313011
-1.815135	DSDS SDDD
-1.593286	DSDS SDDS	-0.009069934
-1.338014	DSDS SDSD	-0.008508265
-1.292256	DSDS SDSS	-0.07866554
-1.991226	DSDS SSDD
-1.748188	DSDS SSDS
-1.593286	DSDS SSSD	-0.03410286
-1.894316	DSDS SSSS	-0.03659381
-1.31492	DSSD DDDD	0.1009697
-1.036166	DSSD DDDS	0.4079114
-0.9083799	DSSD DDSD	0.1483662
-0.9627376	DSSD DDSS	0.1833905
-1.235739	DSSD DSDD	0.01696998
-0.9531922	DSSD DSDS	0.2037978
-0.8755873	DSSD DSSD	0.07624674
-0.9724974	DSSD DSSS	0.2343215
-1.574557	DSSD SDDD	0.03213114
-1.61595	DSSD SDDS	-0.04653233
-1.41183	DSSD SDSD	-0.05327986
-1.469822	DSSD SDSS	-0.08009653
-1.837799	DSSD SSDD	-0.03698356
-1.574557	DSSD SSDS	-0.1829306
-2.61595	DSSD SSSD
-1.91698	DSSD SSSS	-0.02862488
-1.367356	DSSS DDDD	0.06628159
-1.136907	DSSS DDDS	0.2494452
-0.904958	DSSS DDSD	0.1804981
-0.9871447	DSSS DDSS	0.1953651
-1.112083	DSSS DSDD	-0.1740693
-0.904958	DSSS DSDS	0.2588322
-0.94411	DSSS DSSD	0.3379189
-0.9201979	DSSS DSSS	0.1703339
-1.522258	DSSS SDDD	0.02578263
-1.554443	DSSS SDDS	-0.01357281
-1.437937	DSSS SDSD	-0.09586731
-1.437937	DSSS SDSS	-0.07170409
-1.890235	DSSS SSDD	-0.02802872
-1.668386	DSSS SSDS	-0.03069374
-1.969416	DSSS SSSD	-0.07079948
-1.969416	DSSS SSSS	-0.07438237
-1.681241	SDDD DDDD
-1.380211	SDDD DDDS
-1.380211	SDDD DDSD
-0.6600519	SDDD DDSS	0.04152048
-1.20412	SDDD DSDD
-0.9822713	SDDD DSDS	-0.07517751
-1.079181	SDDD DSSD	-0.05345137
-0.9822713	SDDD DSSS	-0.04049832
-1.982271	SDDD SDDD
-1.681241	SDDD SDDS
-1.380211	SDDD SDSD	-0.07866021
-1.380211	SDDD SDSS
-1.50515	SDDD SSDS
-1.982271	SDDD SSSD
-1.982271	SDDD SSSS
-1.350248	SDDS DDDD
-1.094975	SDDS DDDS	-0.04203944
-0.90309	SDDS DDSD	0.04506206
-0.90309	SDDS DDSS	0.04945494
-1.049218	SDDS DSDD	-0.0391074
-1.094975	SDDS DSDS	-0.1229956
-1.20412	SDDS DSSD	-0.02362699
-0.90309	SDDS DSSS	0.03865448
-2.049218	SDDS SDDD
-1.447158	SDDS SDDS	-0.0881361
-1.350248	SDDS SDSD	-0.04167664
-1.748188	SDDS SDSS
-2.049218	SDDS SSDD
-2.049218	SDDS SSSD
-2.049218	SDDS SSSS
-1.665894	SDSD DDDD	-0.1727994
-0.9669235	SDSD DDDS	-0.02994137
-0.8419848	SDSD DDSD	0.05081823
-1.297917	SDSD DDSS	-0.2052495
-0.8642612	SDSD DSDD	0.06508401
-1.188772	SDSD DSDS	-0.01007486
-1.029071	SDSD DSSD	0.01986635
-0.8419848	SDSD DSSS	-0.02018222
-1.841985	SDSD SDDD
-1.841985	SDSD SDDS
-1.841985	SDSD SDSD	-0.4579581
-1.540955	SDSD SDSS
-2.143015	SDSD SSDS
-1.364864	SDSD SSSD
-2.143015	SDSD SSSS
-1.721536	SDSS DDDD	-0.1751533
-1.084714	SDSS DDDS	-0.02717216
-1.244415	SDSS DDSD	-0.02959187
-0.8764378	SDSS DDSS	-0.01930514
-1.119476	SDSS DSDD	-0.03005928
-0.9682082	SDSS DSDS	-0.09569973
-0.9682082	SDSS DSSD	-0.02957563
-0.9945371	SDSS DSSS	0.07551548
-1.596597	SDSS SDDD	-0.09835526
-1.420506	SDSS SDDS	-0.02915823
-1.897627	SDSS SDSD
-1.244415	SDSS SDSS	-0.009067014
-1.721536	SDSS SSDD
-1.596597	SDSS SSDS
-1.499687	SDSS SSSD	-0.165775
-2.198657	SDSS SSSS
-0.8952646	SSDD DDDD	-0.1534942
-0.9622114	SSDD DDDS	-0.105171
-0.9622114	SSDD DDSD	-0.02193987
-1.263241	SSDD DDSS
-1.041393	SSDD DSDD	-0.05341095
-1.740363	SSDD DSDS
-1.439333	SSDD DSSD
-1.263241	SSDD DSSS
-1.740363	SSDD SDDD
-1.263241	SSDD SDDS
-1.439333	SSDD SDSD
-1.439333	SSDD SDSS
-1.740363	SSDD SSDS
-1.158363	SSDS DDDD	-0.06244899
-1.012234	SSDS DDDS	-0.05561224
-1.255273	SSDS DDSD	-0.09523644
-0.9542425	SSDS DDSS	-0.003026448
-1.556303	SSDS DSDD
-0.8159398	SSDS DSDS	-0.04196107
-1.158363	SSDS DSSD	-0.152836
-1.079181	SSDS DSSS	-0.02942442
-1.556303	SSDS SDDS
-1.556303	SSDS SDSD
-1.556303	SSDS SDSS
-1.857332	SSDS SSDD
-1.556303	SSDS SSSD
-1.857332	SSDS SSSS
-0.9481683	SSSD DDDD	-0.04177583
-1.374137	SSSD DDDS
-1.073107	SSSD DDSD	-0.1040103
-1.073107	SSSD DDSS	-0.02802872
-1.374137	SSSD DSDD
-1.00616	SSSD DSDS	-0.04393067
-1.550228	SSSD DSSD	-0.4150542
-1.073107	SSSD DSSS	-0.1121714
-1.851258	SSSD SDDD
-1.249198	SSSD SDDS	-0.0881361
-1.851258	SSSD SDSD
-1.374137	SSSD SDSS	-0.1845597
-1.374137	SSSD SSDD
-1.851258	SSSD SSDS
-1.550228	SSSD SSSS
-1.210853	SSSS DDDD
-1.335792	SSSS DDDS
-1.210853	SSSS DDSD
-0.7715207	SSSS DDSS	-0.05043408
-1.113943	SSSS DSDD
-1.335792	SSSS DSDS
-1.210853	SSSS DSSD	-0.08406101
-0.8129134	SSSS DSSS	-0.05565576
-1.511883	SSSS SDDD
-1.210853	SSSS SDSS
-1.812913	SSSS SSSD
-1.511883	SSSS SSSS

\3-grams:
-0.69897	DDDD DDDD DDSD
-0.5740313	DDDD DDDD DSSS
-0.7923917	DDDS DDDD DDSD	-0.1583625
-1.190332	DDDS DDDD DSDD
-0.7923917	DDDS DDDD DSDS	-0.08359037
-1.190332	DDDS DDDD DSSD
-1.190332	DDDS DDDD DSSS
-1	DDSD DDDD DDDD
-0.8239087	DDSD DDDD DDDS	-0.1583625
-1.124939	DDSD DDDD DDSD
-1.124939	DDSD DDDD DSDD	-0.139662
-1	DDSD DDDD DSDS
-1.124939	DDSD DDDD DSSD	-0.5399121
-1.30103	DDSD DDDD DSSS
-0.9420081	DDSS DDDD DDSD	-0.1122698
-1.243038	DDSS DDDD DDSS
-1.066947	DDSS DDDD DSDD
-1.066947	DDSS DDDD DSDS	-0.1401787
-1.243038	DDSS DDDD DSSD
-1.243038	DDSS DDDD DSSS
-1.066947	DDSS DDDD SDSS
-1.243038	DDSS DDDD SSDS
-0.7596679	DSDD DDDD DDSD	-0.1122698
-0.8846066	DSDD DDDD DDSS
-1.060698	DSDD DDDD DSDD
-1.060698	DSDD DDDD DSDS
-0.8846066	DSDD DDDD DSSD	-0.1597009
-1.060698	DSDS DDDD DDSD
-1.060698	DSDS DDDD DSDD
-1.060698	DSDS DDDD DSSS
-1.190332	DSSD DDDD DDDD
-1.01424	DSSD DDDD DDDS	-0.1026623
-1.190332	DSSD DDDD DDSD
-1.01424	DSSD DDDD DSDD
-1.190332	DSSD DDDD DSDS
-1.190332	DSSD DDDD DSSD
-1.190332	DSSD DDDD SDSS	-0.4259687
-1.20412	DSSS DDDD DDDD
-1.028029	DSSS DDDD DDSD
-0.90309	DSSS DDDD DDSS
-1.20412	DSSS DDDD DSDD
-1.20412	DSSS DDDD DSDS
-0.39794	SDSD DDDD DDSS
-0.39794	SDSS DDDD DSSD	-0.39794
-0.5642715	SSDD DDDD DDSS
-0.7403627	SSDD DDDD DSDS
-0.6532125	SSDS DDDD DSSD
-0.845098	SSSD DDDD DSDS
-0.845098	SSSD DDDD DSSS
-0.9208187	DDDD DDDS DDDD
-0.6197888	DDDD DDDS DDSS	-0.2115636
-1.09691	DDDD DDDS DSDS	-0.4393327
-1.09691	DDDD DDDS DSSS
-1.09691	DDDS DDDS DDDS	-0.4409091
-1.09691	DDDS DDDS DSDS
-0.79588	DDDS DDDS DSSD	-0.09373997
-0.79588	DDDS DDDS DSSS	-0.08922319
-1.09691	DDDS DDDS SDDS
-1.230449	DDSD DDDS DDDD
-0.9294189	DDSD DDDS DDSD	-0.06740611
-0.9294189	DDSD DDDS DDSS	-0.01711231
-1.10551	DDSD DDDS DSDD
-1.10551	DDSD DDDS DSDS	-0.1083395
-0.9294189	DDSD DDDS DSSD	-0.05551732
-1.0086	DDSD DDDS DSSS	-0.06927297
-1.40654	DDSD DDDS SDSD	-0.4393327
-1.40654	DDSD DDDS SDSS	-0.447158
-1.361728	DDSS DDDS DDDS
-1.060698	DDSS DDDS DDSD
-1.060698	DDSS DDDS DDSS
-1.060698	DDSS DDDS DSDD
-1.185637	DDSS DDDS DSDS
-1.060698	DDSS DDDS DSSD
-0.9637879	DDSS DDDS DSSS	-0.03451086
-1.361728	DDSS DDDS SDDS
-1.185637	DDSS DDDS SDSS
-0.8846066	DSDD DDDS DDSD
-1.060698	DSDD DDDS DSSS
-1.09691	DSDS DDDS DDDD	-0.1171643
-1.221849	DSDS DDDS DDSD	-0.136838
-1.39794	DSDS DDDS DDSS
-1	DSDS DDDS DSDD	-0.04420367
-1.09691	DSDS DDDS DSSD	-0.04674342
-1.09691	DSDS DDDS DSSS
-1.221849	DSDS DDDS SDDD	-0.1492981
-1.221849	DSDS DDDS SDSD
-1.221849	DSDS DDDS SDSS
-1.09691	DSSD DDDS DDDD
-1.39794	DSSD DDDS DDDS
-1	DSSD DDDS DDSD	-0.0241337
-1.221849	DSSD DDDS DDSS	-0.1832193
-1.39794	DSSD DDDS DSDD
-1.09691	DSSD DDDS DSDS
-1	DSSD DDDS DSSD	-0.0454754
-1	DSSD DDDS DSSS
-1.39794	DSSD DDDS SDDD
-1.221849	DSSD DDDS SDSD
-1.39794	DSSD DDDS SDSS
-1.060698	DSSS DDDS DDDD
-1.060698	DSSS DDDS DDSD
-1.060698	DSSS DDDS DDSS
-1.185637	DSSS DDDS DSDD
-1.361728	DSSS DDDS DSDS
-1.185637	DSSS DDDS DSSD	-0.1224641
-0.8176598	DSSS DDDS DSSS	-0.1508192
-1.361728	DSSS DDDS SDSD
-1.361728	DSSS DDDS SDSS
-0.69897	SDDS DDDS DDSS	-0.542746
-0.8750613	SDDS DDDS DSSS
-1.079181	SDSD DDDS DDDS
-0.90309	SDSD DDDS DDSS
-1.079181	SDSD DDDS DSDD
-1.079181	SDSD DDDS DSSD
-1.079181	SDSD DDDS SDSS
-1.021189	SDSS DDDS DDSD	-0.4259687
-0.845098	SDSS DDDS DSDD
-0.845098	SDSS DDDS DSSS
-0.5228788	SSDD DDDS DSSD
-0.60206	SSDS DDDS DSSS
-1.30103	DDDD DDSD DDDD
-1.124939	DDDD DDSD DDDS
-1.30103	DDDD DDSD DDSD
-1.30103	DDDD DDSD DDSS
-1	DDDD DDSD DSDD
-1.124939	DDDD DDSD DSDS
-1.30103	DDDD DDSD DSSD
-1.124939	DDDD DDSD DSSS
-1.30103	DDDD DDSD SDDD
-0.7501225	DDDS DDSD DDDD	-0.01639041
-1.352183	DDDS DDSD DDDS
-0.8750613	DDDS DDSD DDSS
-1.176091	DDDS DDSD DSDS	-0.1832193
-0.9542425	DDDS DDSD DSSD
-1.051152	DDDS DDSD DSSS	-0.09571853
-1.352183	DDDS DDSD SDSD	-0.3802113
-0.90309	DDSD DDSD DDDS	-0.09177037
-0.9700368	DDSD DDSD DDSD	-0.02020338
-0.9700368	DDSD DDSD DDSS
-1.049218	DDSD DDSD DSDS	-0.1971338
-1.049218	DDSD DDSD DSSD
-0.845098	DDSD DDSD DSSS	-0.1109585
-1.447158	DDSD DDSD SDDD
-1.071882	DDSS DDSD DDDD	-0.06338699
-1.071882	DDSS DDSD DDDS	-0.05478682
-1.071882	DDSS DDSD DDSD	-0.05992646
-0.925754	DDSS DDSD DDSS	-0.1042092
-1.168792	DDSS DDSD DSDD
-1.293731	DDSS DDSD DSDS	-0.1625347
-1.293731	DDSS DDSD DSSD
-0.925754	DDSS DDSD DSSS	-0.05432585
-1.469822	DDSS DDSD SDDS
-1.293731	DDSS DDSD SDSD
-1.469822	DDSS DDSD SDSS
-0.9242793	DSDD DDSD DDSD
-1.146128	DSDD DDSD DDSS	-0.1670001
-1.021189	DSDD DDSD DSDD
-1.322219	DSDD DDSD DSDS
-0.9242793	DSDD DDSD DSSD	-0.1249387
-0.7781513	DSDD DDSD DSSS	-0.05313107
-1.146128	DSDD DDSD SDDD	-0.09691003
-1.146128	DSDD DDSD SDSD
-1.40654	DSDS DDSD DDDD
-0.9294189	DSDS DDSD DDDS	-0.2062437
-1.0086	DSDS DDSD DDSD	-0.05115253
-1.40654	DSDS DDSD DDSS
-1.40654	DSDS DDSD DSDD
-1.10551	DSDS DDSD DSDS
-0.9294189	DSDS DDSD DSSD	-0.04936161
-0.8044802	DSDS DDSD DSSS
-1.197281	DSSD DDSD DDDD
-1.100371	DSSD DDSD DDDS	-0.06433213
-0.8962505	DSSD DDSD DDSD	-0.0754492
-0.9542425	DSSD DDSD DDSS	-0.1295151
-1.197281	DSSD DDSD DSDD
-1.197281	DSSD DDSD DSDS	-0.09727947
-1.100371	DSSD DDSD DSSD
-1.100371	DSSD DDSD DSSS
-1.322219	DSSD DDSD SDDD
-1.498311	DSSD DDSD SDSS
-1.322219	DSSD DDSD SSDS
-1.073107	DSSS DDSD DDDD
-1.00616	DSSS DDSD DDDS	-0.08012637
-1.249198	DSSS DDSD DDSD	-0.1055102
-1.152288	DSSS DDSD DDSS	-0.4453139
-1.374137	DSSS DDSD DSDD	-0.1249387
-1.00616	DSSS DDSD DSDS	-0.2143928
-1.00616	DSSS DDSD DSSD	-0.04575749
-0.8512583	DSSS DDSD DSSS	-0.1420722
-1.550228	DSSS DDSD SDDD
-1.374137	DSSS DDSD SDSS	-0.1597009
-1.550228	DSSS DDSD SSSD
-1.09691	SDDS DDSD DDDS
-1.09691	SDDS DDSD DDSD
-1.09691	SDDS DDSD DDSS
-1.190332	SDSD DDSD DDDS
-1.01424	SDSD DDSD DDSD
-0.8893017	SDSD DDSD DDSS	-0.4052392
-1.190332	SDSD DDSD DSDD
-1.190332	SDSD DDSD DSSS
-1.190332	SDSD DDSD SSSD
-0.90309	SDSS DDSD DDSS
-0.90309	SDSS DDSD DSDS
-0.7403627	SSDD DDSD DSSS	-0.4463073
-0.544068	SSDS DDSD DSSD
-0.5228788	SSSD DDSD DSSD
-0.7923917	DDDD DDSS DDDD	-0.1514136
-1.190332	DDDD DDSS DDSD	-0.4544573
-0.8893017	DDDD DDSS DDSS	-0.07302094
-1.190332	DDDD DDSS DSDS
-1.01424	DDDD DDSS DSSD
-1.190332	DDDD DDSS DSSS	-0.4313638
-1.190332	DDDD DDSS SDSD
-1.371068	DDDS DDSS DDDS
-1.070038	DDDS DDSS DDSD	-0.09127937
-0.8269998	DDDS DDSS DDSS	-0.05380123
-1.070038	DDDS DDSS DSDD
-1.371068	DDDS DDSS DSDS
-0.8939466	DDDS DDSS DSSD	-0.09017661
-0.8939466	DDDS DDSS DSSS	-0.0482321
-1.371068	DDDS DDSS SDSS
-1.469822	DDSD DDSS DDDD
-1.071882	DDSD DDSS DDDS	-0.06963594
-1.168792	DDSD DDSS DDSD	-0.1076698
-0.925754	DDSD DDSS DDSS	-0.06519559
-1.469822	DDSD DDSS DSDD
-1.293731	DDSD DDSS DSDS
-1.168792	DDSD DDSS DSSD	-0.08908954
-0.925754	DDSD DDSS DSSS	-0.04036599
-1.469822	DDSD DDSS SDDS	-0.4024876
-1.071882	DDSD DDSS SDSD	-0.1169698
-1.469822	DDSD DDSS SDSS
-1.469822	DDSD DDSS SSSD
-1.374137	DDSS DDSS DDDD
-1.249198	DDSS DDSS DDDS	-0.09615407
-1.073107	DDSS DDSS DDSD	-0.04869192
-0.8098657	DDSS DDSS DDSS	-0.1544939
-1.374137	DDSS DDSS DSDD
-1.550228	DDSS DDSS DSDS
-0.7720771	DDSS DDSS DSSD	-0.08333716
-1.00616	DDSS DDSS DSSS	-0.08686806
-1.374137	DDSS DDSS SDSS	-0.05703852
-1.550228	DDSS DDSS SSSS
-1.278754	DSDD DDSS DDDD
-0.9777236	DSDD DDSS DDSD	-0.09127937
-0.9777236	DSDD DDSS DDSS	-0.06572171
-1.278754	DSDD DDSS DSDD
-0.9777236	DSDD DDSS DSDS
-0.9777236	DSDD DDSS DSSD
-1.278754	DSDD DDSS DSSS
-1.278754	DSDD DDSS SSSS
-0.9542425	DSDS DDSS DDDS
-1.021189	DSDS DDSS DDSD
-1.322219	DSDS DDSS DDSS
-1.100371	DSDS DDSS DSDD
-0.9542425	DSDS DDSS DSDS	-0.06459924
-1.100371	DSDS DDSS DSSD	-0.1546346
-0.9542425	DSDS DDSS DSSS	-0.02679318
-1.498311	DSDS DDSS SDDS
-1.322219	DSDS DDSS SSDS	-0.08715019
-1.197281	DSDS DDSS SSSD	-0.0881361
-1.071882	DSSD DDSS DDDS	-0.1646114
-0.9927008	DSSD DDSS DDSD	-0.1000533
-0.925754	DSSD DDSS DDSS	0.007855669
-1.469822	DSSD DDSS DSDD
-1.071882	DSSD DDSS DSDS	-0.07506469
-0.9927008	DSSD DDSS DSSD
-1.293731	DSSD DDSS DSSS
-1.293731	DSSD DDSS SDSD	-0.1581797
-1.469822	DSSD DDSS SDSS
-1.469822	DSSD DDSS SSSD
-1.308209	DSSS DDSS DDDD	-0.1829307
-1.08636	DSSS DDSS DDDS	-0.0798551
-1.08636	DSSS DDSS DDSD
-1.308209	DSSS DDSS DDSS
-1.308209	DSSS DDSS DSDD
-0.9402318	DSSS DDSS DSDS	-0.172434
-0.9402318	DSSS DDSS DSSD	-0.04441912
-0.9402318	DSSS DDSS DSSS	-0.0336326
-1.4843	DSSS DDSS SDDD
-1.4843	DSSS DDSS SSDS
-1.4843	DSSS DDSS SSSS
-1.217484	SDDD DDSS DDDS	-0.4271473
-1.217484	SDDD DDSS DSDD
-1.217484	SDDD DDSS DSDS	-0.4340866
-1.217484	SDDD DDSS DSSD	-0.4495378
-0.916454	SDDD DDSS DSSS
-1.217484	SDDD DDSS SDDD
-1.217484	SDDD DDSS SSDS
-1.060698	SDDS DDSS DDSD
-0.8846066	SDDS DDSS DDSS
-1.060698	SDDS DDSS DSDS
-1.060698	SDDS DDSS DSSD
-0.5642715	SDSD DDSS DSDS	-0.1507854
-0.7403627	SDSD DDSS SDSS
-1.20412	SDSS DDSS DDDD
-1.20412	SDSS DDSS DDSD
-0.90309	SDSS DDSS DDSS
-1.028029	SDSS DDSS DSSS
-1.028029	SDSS DDSS SDDD
-1.20412	SDSS DDSS SDSD
-0.8750613	SSDS DDSS DSSS
-0.7403627	SSSD DDSS DSSS
-0.9542425	SSSS DDSS DDDS
-0.7781513	SSSS DDSS DDSD
-0.9542425	SSSS DDSS DDSS
-0.763428	DDDD DSDD DDSD
-1.161368	DDDD DSDD DSDD	-0.4191293
-0.9852768	DDDD DSDD DSDS
-1.255273	DDDS DSDD DDDD
-0.8573325	DDDS DSDD DDSD	-0.1249387
-0.8573325	DDDS DSDD DDSS	-0.1983676
-1.079181	DDDS DSDD DSDS
-1.079181	DDDS DSDD DSSD
-1.255273	DDDS DSDD DSSS
-1.30103	DDSD DSDD DDDD	-0.4164234
-1.30103	DDSD DSDD DDSD
-1.124939	DDSD DSDD DDSS
-1.124939	DDSD DSDD DSDD	-0.1638568
-1	DDSD DSDD DSDS
-0.69897	DDSD DSDD DSSD	-0.05577049
-1.30103	DDSD DSDD DSSS
-1.30103	DDSD DSDD SDSS
-1.054358	DDSS DSDD DDSD	-0.1783831
-1.054358	DDSS DSDD DDSS	-0.1735441
-1.230449	DDSS DSDD DSDD
-1.054358	DDSS DSDD DSDS
-0.8325089	DDSS DSDD DSSD
-0.9294189	DDSS DSDD DSSS
-1.230449	DDSS DSDD SDSS
-1.230449	DDSS DSDD SSDD
-0.90309	DSDD DSDD DDSD
-0.90309	DSDD DSDD DSSD
-1.255273	DSDS DSDD DDDD
-1.255273	DSDS DSDD DDDS	-0.4164234
-0.9542425	DSDS DSDD DDSS
-1.255273	DSDS DSDD DSDD
-1.255273	DSDS DSDD DSSD
-0.6532125	DSDS DSDD DSSS	-0.08885901
-1.230449	DSSD DSDD DDDD
-1.054358	DSSD DSDD DDDS	-0.1823402
-1.054358	DSSD DSDD DDSS
-1.230449	DSSD DSDD DSDS
-1.054358	DSSD DSDD DSSD
-0.8325089	DSSD DSDD DSSS	-0.05241685
-1.230449	DSSD DSDD SDDS	-0.3309932
-1.230449	DSSD DSDD SSSS
-1.051152	DSSS DSDD DDDD	-0.06315381
-1.176091	DSSS DSDD DDSS	-0.1983677
-0.9542425	DSSS DSDD DSDS	-0.08983932
-0.8081145	DSSS DSDD DSSD
-0.6118198	DSSS DSDD DSSS	-0.1285245
-1.352183	DSSS DSDD SDDS
-1.352183	DSSS DSDD SDSS
-0.9294189	SDDS DSDD DDSD
-0.9294189	SDDS DSDD DSDD
-0.9294189	SDDS DSDD DSDS
-0.763428	SDSD DSDD DDSD	-0.0769598
-1.161368	SDSD DSDD DSDS
-1.161368	SDSD DSDD DSSD
-1.161368	SDSD DSDD DSSS
-0.9852768	SDSD DSDD SDDS
-0.8016323	SDSS DSDD DDSD	-0.1668012
-0.8016323	SDSS DSDD DSDS
-0.9777236	SDSS DSDD DSSD
-0.6532125	SSDD DSDD DSDS
-1.243038	DDDD DSDS DDDS
-1.066947	DDDD DSDS DDSD	-0.1770364
-0.7659168	DDDD DSDS DDSS	-0.03599765
-0.9420081	DDDD DSDS DSDS	-0.08398014
-1.243038	DDDD DSDS DSSD
-1.243038	DDDD DSDS DSSS
-1.255273	DDDS DSDS DDDD
-1.079181	DDDS DSDS DDSD	-0.1863764
-0.8573325	DDDS DSDS DDSS
-1.255273	DDDS DSDS DSDS
-1.079181	DDDS DSDS DSSS
-1.371068	DDSD DSDS DDDD	-0.4376127
-0.8939466	DDSD DSDS DDDS	-0.2764618
-1.070038	DDSD DSDS DDSD
-1.070038	DDSD DSDS DDSS
-1.070038	DDSD DSDS DSDD
-0.9731278	DDSD DSDS DSDS	-0.03856341
-0.9731278	DDSD DSDS DSSD	-0.08333722
-1.194977	DDSD DSDS DSSS	-0.541006
-1.025306	DDSS DSDS DDDS	-0.0729323
-0.9461246	DDSS DSDS DDSD	-0.08080024
-1.122216	DDSS DSDS DDSS
-0.9461246	DDSS DSDS DSDS	-0.1426675
-0.8211859	DDSS DSDS DSSD	-0.00890239
-1.025306	DDSS DSDS DSSS	-0.1591528
-1.122216	DDSS DSDS SDSD
-1.361728	DSDD DSDS DDDD	-0.4376127
-1.361728	DSDD DSDS DDDS
-1.185637	DSDD DSDS DDSD
-1.060698	DSDD DSDS DDSS
-0.9637879	DSDD DSDS DSSD	-0.07438237
-1.060698	DSDD DSDS DSSS	-0.09319197
-1.361728	DSDD DSDS SDDD
-1.060698	DSDD DSDS SDSS	-0.60206
-1.361728	DSDD DSDS SSSD
-1.361728	DSDD DSDS SSSS
-1	DSDS DSDS DDDS	-0.050938
-0.8750613	DSDS DSDS DDSD	-0.1175776
-1.079181	DSDS DSDS DDSS	-0.05799196
-1.477121	DSDS DSDS DSDD
-0.8239087	DSDS DSDS DSDS	-0.03698356
-1.477121	DSDS DSDS DSSD
-1	DSDS DSDS DSSS
-1.477121	DSDS DSDS SDDS
-1.477121	DSDS DSDS SDSD
-1.477121	DSDS DSDS SDSS	-0.3802113
-1.190332	DSSD DSDS DDDD
-1.190332	DSSD DSDS DDSD
-0.7923917	DSSD DSDS DDSS	-0.2128939
-1.491362	DSSD DSDS DSDD
-1.093422	DSSD DSDS DSDS	-0.06338699
-1.491362	DSSD DSDS DSSD
-1.01424	DSSD DSDS DSSS
-1.491362	DSSD DSDS SDSD	-0.3881802
-1.31527	DSSD DSDS SDSS
-1.491362	DSSD DSDS SSDS
-1.012234	DSSS DSDS DDDS
-1.380211	DSSS DSDS DDSD
-1.079181	DSSS DSDS DDSS	-0.05123761
-1.255273	DSSS DSDS DSDD	-0.03698356
-1.012234	DSSS DSDS DSDS	-0.0347621
-1.158363	DSSS DSDS DSSD
-0.8159398	DSSS DSDS DSSS	-0.07200265
-1.556303	DSSS DSDS SDDS
-1.556303	DSSS DSDS SDSD
-1.158363	DSSS DSDS SDSS
-1.380211	DSSS DSDS SSSD
-0.7533277	SDDD DSDS DSDD
-0.9294189	SDDD DSDS DSSD
-0.845098	SDDS DSDS DDDS
-0.845098	SDDS DSDS DDSD
-0.845098	SDDS DSDS DSDS
-0.845098	SDDS DSDS DSSS
-0.9294189	SDSD DSDS DSSD
-1.09691	SDSS DSDS DDDS
-0.79588	SDSS DSDS DDSS	-0.09497552
-1.09691	SDSS DSDS DSDD
-0.79588	SDSS DSDS DSDS
-1.09691	SDSS DSDS SDSD
-0.8239087	SSDS DSDS DSDD
-0.8129134	SSSD DSDS DSDD
-1.176091	DDDD DSSD DDDD
-0.8750613	DDDD DSSD DDDS
-0.7781513	DDDD DSSD DDSD
-1.176091	DDDD DSSD DSDS
-0.8750613	DDDD DSSD DSSD
-1.342423	DDDS DSSD DDDS
-0.8653014	DDDS DSSD DDSS
-1.342423	DDDS DSSD DSDD
-0.9444827	DDDS DSSD DSDS
-0.6892102	DDDS DSSD DSSD	-0.07255065
-1.342423	DDDS DSSD DSSS	-0.4296966
-1.342423	DDDS DSSD SDSS
-1.342423	DDDS DSSD SSDD
-1.477121	DDSD DSSD DDDD	-0.4329176
-1.30103	DDSD DSSD DDDS
-0.7781513	DDSD DSSD DDSD	-0.1037494
-1.477121	DDSD DSSD DDSS
-1.079181	DDSD DSSD DSDD	-0.2167091
-1.079181	DDSD DSSD DSDS	-0.03275613
-1.30103	DDSD DSSD DSSD
-1.176091	DDSD DSSD DSSS	-0.09027022
-1.477121	DDSD DSSD SDDD
-1.477121	DDSD DSSD SDSD
-1.30103	DDSD DSSD SDSS
-1.30103	DDSD DSSD SSDS	-0.09691003
-1.210853	DDSS DSSD DDDS	-0.1003706
-0.9098234	DDSS DSSD DDSD	-0.03365937
-0.9678153	DDSS DSSD DDSS	-0.1042092
-0.8586708	DDSS DSSD DSDS	-0.04855038
-0.7337321	DDSS DSSD DSSD	-0.03030053
-1.113943	DDSS DSSD DSSS
-1.511883	DDSS DSSD SDDD
-1.511883	DDSS DSSD SDSD
-1.113943	DDSS DSSD SDSS
-1.088136	DSDD DSSD DDDS
-1.213075	DSDD DSSD DDSD
-0.845098	DSDD DSSD DDSS	-0.03409242
-1.389166	DSDD DSSD DSDD
-0.9120448	DSDD DSSD DSDS	-0.01076183
-1.213075	DSDD DSSD DSSD	-0.1804561
-0.9120448	DSDD DSSD DSSS
-1.213075	DSDD DSSD SDSD
-1.389166	DSDD DSSD SDSS
-1.113943	DSDS DSSD DDDD
-1.113943	DSDS DSSD DDDS
-0.9378521	DSDS DSSD DDSD	-0.02817231
-1.017033	DSDS DSSD DDSS	-0.09416732
-1.238882	DSDS DSSD DSDS
-1.414973	DSDS DSSD DSSD
-0.9378521	DSDS DSSD DSSS	-0.03129235
-1.414973	DSDS DSSD SSSS
-1.518514	DSSD DSSD DDDD
-0.8653014	DSSD DSSD DDDS	-0.06942141
-0.9744459	DSSD DSSD DDSD	-0.05136137
-1.041393	DSSD DSSD DDSS	-0.06448618
-0.9744459	DSSD DSSD DSDD	-0.00346975
-1.120574	DSSD DSSD DSDS	-0.03275613
-1.120574	DSSD DSSD DSSD	-0.06045255
-0.9744459	DSSD DSSD DSSS	-0.02512602
-1.217484	DSSD DSSD SDDD
-1.518514	DSSD DSSD SDSD
-1.133539	DSSS DSSD DDDD
-1.531479	DSSS DSSD DDDS
-0.8782664	DSSS DSSD DDSD	-0.09460604
-1.133539	DSSS DSSD DDSS	-0.1929358
-1.355388	DSSS DSSD DSDD
-1.230449	DSSS DSSD DSDS
-1.054358	DSSS DSSD DSSD	-0.1183081
-0.9294189	DSSS DSSD DSSS	-0.04887753
-1.531479	DSSS DSSD SDDS
-1.355388	DSSS DSSD SDSD
-1.531479	DSSS DSSD SSDS
-0.6690068	SDDD DSSD DSDS
-0.8129134	SDDS DSSD DSSS
-0.8653014	SDSD DSSD DDSS
-1.041393	SDSD DSSD DSSD
-1.041393	SDSD DSSD DSSS
-1.146128	SDSS DSSD DDDD
-0.9700368	SDSS DSSD DDDS
-0.845098	SDSS DSSD DSSD	-0.09743612
-0.4259687	SSDS DSSD DSDS
-0.1760913	SSSD DSSD DSSD
-0.544068	SSSS DSSD DSSD	-0.4284293
-1.028029	DDDD DSSS DDSD
-1.028029	DDDD DSSS DDSS
-1.028029	DDDD DSSS DSSD
-1.20412	DDDD DSSS SDSD
-1.20412	DDDD DSSS SDSS	-0.4014006
-1.056905	DDDS DSSS DDDS	-0.03745125
-0.9107768	DDDS DSSS DDSD	-0.09568491
-1.056905	DDDS DSSS DDSS	-0.08724264
-1.153815	DDDS DSSS DSDD
-0.9107768	DDDS DSSS DSDS	-0.06694678
-0.8016323	DDDS DSSS DSSD	-0.02482358
-1.454845	DDDS DSSS DSSS
-1.454845	DDDS DSSS SDDD
-1.562293	DDSD DSSS DDDS	-0.4376127
-1.085172	DDSD DSSS DDSD	-0.04207179
-1.386202	DDSD DSSS DDSS
-1.164353	DDSD DSSS DSDD	-0.1391792
-1.018225	DDSD DSSS DSDS	-0.02813153
-0.9602329	DDSD DSSS DSSD	-0.1439066
-0.7841416	DDSD DSSS DSSS	-0.04196447
-1.386202	DDSD DSSS SDDD
-1.562293	DDSD DSSS SDDS
-1.164353	DDSD DSSS SDSD	-0.05115253
-1.066947	DDSS DSSS DDDS	-0.04764163
-1	DDSS DSSS DDSD	-0.05722666
-1	DDSS DSSS DDSS	-0.1500094
-1.146128	DDSS DSSS DSDD
-1.066947	DDSS DSSS DSDS	-0.05589248
-1.146128	DDSS DSSS DSSD
-1	DDSS DSSS DSSS	-0.01848339
-1.544068	DDSS DSSS SDDD
-1.544068	DDSS DSSS SDDS
-1.367977	DDSS DSSS SDSD
-1.544068	DDSS DSSS SDSS
-1.544068	DDSS DSSS SSDS
-1.088136	DSDD DSSS DDDD	-0.1180993
-1.213075	DSDD DSSS DDDS
-0.9120448	DSDD DSSS DDSD
-1.088136	DSDD DSSS DSDD	-0.2276011
-0.9120448	DSDD DSSS DSDS	-0.08289929
-0.9120448	DSDD DSSS DSSD	-0.1297025
-1.088136	DSDD DSSS DSSS
-1.389166	DSDD DSSS SDSD
-1.213075	DSDD DSSS SDSS
-1.4843	DSDS DSSS DDDD
-1.4843	DSDS DSSS DDDS
-1.308209	DSDS DSSS DDSD
-0.8822398	DSDS DSSS DDSS	-0.1462733
-1.18327	DSDS DSSS DSDD	-0.1792964
-1.007179	DSDS DSSS DSDS	-0.05589248
-1.308209	DSDS DSSS DSSD
-0.9402318	DSDS DSSS DSSS	-0.0532455
-1.4843	DSDS DSSS SDDD
-1.18327	DSDS DSSS SDSS	-0.09061071
-1.4843	DSDS DSSS SSDS
-1.4843	DSDS DSSS SSSS
-1.286307	DSSD DSSS DDDD
-1.462398	DSSD DSSS DDDS
-0.91833	DSSD DSSS DDSD	-0.03420568
-0.91833	DSSD DSSS DDSS	-0.0983316
-1.286307	DSSD DSSS DSDD
-0.9852768	DSSD DSSS DSDS	-0.04936161
-0.9852768	DSSD DSSS DSSD	-0.03279251
-1.462398	DSSD DSSS DSSS
-1.286307	DSSD DSSS SDDD	-0.1611509
-1.537819	DSSS DSSS DDDD
-0.993751	DSSS DSSS DDDS	-0.05324551
-0.993751	DSSS DSSS DDSD	-0.1443768
-1.361728	DSSS DSSS DDSS
-1.236789	DSSS DSSS DSDD	-0.07269912
-0.7974564	DSSS DSSS DSDS	-0.02348109
-1.139879	DSSS DSSS DSSD	-0.05478682
-0.8388491	DSSS DSSS DSSS	-0.1611509
-1.537819	DSSS DSSS SDDS
-1.537819	DSSS DSSS SDSS
-0.9294189	SDDD DSSS DDDS
-0.9294189	SDDD DSSS DDSS
-0.9294189	SDDD DSSS DSSD
-1.09691	SDDS DSSS DDSS
-1.09691	SDDS DSSS DSDD
-1.09691	SDDS DSSS DSDS
-0.763428	SDSD DSSS DDSD	-0.1590416
-1.161368	SDSD DSSS DDSS
-1.161368	SDSD DSSS DSDD
-1.161368	SDSD DSSS DSSD
-0.860338	SDSD DSSS DSSS	-0.09967064
-1.161368	SDSD DSSS SDDS
-0.9378521	SDSS DSSS DDSD
-1.113943	SDSS DSSS DSDS
-1.113943	SDSS DSSS DSSD
-0.9378521	SDSS DSSS DSSS
-0.7403627	SSDS DSSS DDSD
-0.69897	SSSD DSSS DDSS
-0.69897	SSSD DSSS DSSS
-0.9542425	SSSS DSSS DDDD
-0.9542425	SSSS DSSS DDDS
-0.8129134	DDDS SDDD DDSS
-0.8129134	DDDS SDDD DSSD
-0.8129134	DDDS SDDD DSSS
-0.60206	DDSD SDDD DDSS	-0.08199224
-0.8239087	DDSD SDDD DSDS
-1	DDSS SDDD DDSS
-1	DDSS SDDD DSDS
-1	DDSS SDDD DSSS
-1	DDSS SDDD SDSD
-0.9777236	DSSD SDDD DDSS
-0.9777236	DSSD SDDD DSDD
-0.9777236	DSSD SDDD DSSD
-0.8846066	DSSS SDDD DDSS
-0.8846066	DSSS SDDD DSDD
-1.060698	DSSS SDDD DSSS
-0.544068	SDSS SDDD DSSS
-0.8129134	DDDS SDDS DSDD
-0.90309	DDSD SDDS DDSD
-0.90309	DDSD SDDS DDSS
-0.90309	DDSD SDDS DSSS
-0.90309	DDSD SDDS SDSD
-0.8016323	DDSS SDDS DDSD
-0.8016323	DDSS SDDS DSSD
-0.9777236	DDSS SDDS SDDS
-0.845098	DSDD SDDS DDSS
-0.544068	DSDD SDDS DSDS	-0.07918125
-0.9294189	DSDS SDDS DDSD
-0.9294189	DSDS SDDS DSDD
-0.9294189	DSDS SDDS DSSS
-0.7533277	DSSD SDDS DSDD
-0.9294189	DSSD SDDS DSSS
-1	DSSS SDDS DDDS	-0.4149733
-0.8239087	DSSS SDDS DDSD
-1	DSSS SDDS DDSS	-0.4376127
-1	DSSS SDDS DSDS
-1	DSSS SDDS DSSS
-0.544068	SDDS SDDS DSSS
-0.7403627	SDSS SDDS DDSS
-0.544068	SSSD SDDS DDSS
-0.69897	DDDD SDSD DDSD
-0.69897	DDDD SDSD DSDD
-1.079181	DDDS SDSD DDDD
-1.079181	DDDS SDSD DDSD
-1.079181	DDDS SDSD DDSS
-0.90309	DDDS SDSD DSDD
-1.079181	DDDS SDSD DSSS
-1	DDSD SDSD DDDS
-1	DDSD SDSD DDSD
-0.8239087	DDSD SDSD DSDD
-1	DDSD SDSD DSSD
-0.69897	DDSD SDSD DSSS
-1.041393	DDSS SDSD DDDS
-0.8653014	DDSS SDSD DSDD
-0.7403627	DDSS SDSD DSSD	-0.08245897
-0.7403627	DSDD SDSD DSDS
-0.7323937	DSDS SDSD DDDS	-0.1995723
-1.130334	DSDS SDSD DDSS
-1.130334	DSDS SDSD DSDD
-1.130334	DSDS SDSD DSDS
-1.130334	DSDS SDSD DSSS
-1.130334	DSDS SDSD SSSD
-0.79588	DSSD SDSD DDSD	-0.08613011
-1.09691	DSSD SDSD DDSS
-0.9208187	DSSD SDSD DSSS
-1.09691	DSSD SDSD SDSS
-1.079181	DSSS SDSD DDSD
-0.90309	DSSS SDSD DSDD	-0.139662
-1.079181	DSSS SDSD DSSD
-0.60206	DSSS SDSD DSSS	-0.05611594
-1.079181	DSSS SDSD SDDD
-0.544068	SDDD SDSD DDSD
-0.6532125	SDDS SDSD DDSD
-0.1760913	SDSD SDSD SSSD
-0.9542425	DDDD SDSS DSDD
-0.9542425	DDDD SDSS DSSD
-1.176091	DDDS SDSS DSDD
-1.176091	DDDS SDSS DSDS	-0.4014006
-1.176091	DDDS SDSS DSSS	-0.4238757
-1.176091	DDDS SDSS SDDD
-0.69897	DDSD SDSS DDSS
-0.8750613	DDSD SDSS DSSD
-0.9777236	DDSS SDSS DDSD
-0.5006024	DDSS SDSS DSSD	-0.02020338
-0.9777236	DDSS SDSS SSSD
-0.9777236	DSDD SDSS DDSD
-0.9777236	DSDD SDSS DSDS
-0.6766936	DSDD SDSS DSSS
-1.176091	DSDS SDSS DDDS
-0.69897	DSDS SDSS DDSS
-1	DSDS SDSS DSDS
-1	DSDS SDSS SDDS
-1.041393	DSSD SDSS DDSD
-1.041393	DSSD SDSS DDSS
-1.041393	DSSD SDSS DSDD
-0.8653014	DSSD SDSS DSDS	-0.1856366
-1.041393	DSSD SDSS SSDS
-0.9208187	DSSS SDSS DDDS
-0.79588	DSSS SDSS DDSS	-0.1180993
-1.09691	DSSS SDSS DSDS
-0.9208187	DSSS SDSS DSSS
-1.09691	DSSS SDSS SDSS
-0.90309	SDSS SDSS DDSS
-0.90309	SDSS SDSS DSSS
-0.39794	SSSD SDSS DDDS
-0.6532125	DDSS SSDD DDDS	-0.3222193
-0.4259687	DSDD SSDD DDSD
-0.7403627	DSSD SSDD DDDS
-0.7403627	DSSS SSDD DDDD
-0.544068	DDDD SSDS DSSS	-0.3899711
-0.544068	DDSD SSDS DSSD
-0.8750613	DDSS SSDS DDDS	-0.3521825
-0.5740313	DDSS SSDS DSDS
-0.8750613	DDSS SSDS DSSS
-0.60206	DSSD SSDS DDDD	-0.03698356
-0.90309	DSSD SSDS DDSS
-0.7269987	DSSD SSDS DSDS
-0.9294189	DSSS SSDS DDDS
-0.9294189	DSSS SSDS DDSD
-0.9294189	DSSS SSDS DSDS
-0.39794	DDDS SSSD DDDD
-0.8129134	DDSD SSSD SSDD
-0.90309	DDSS SSSD DDDD	-0.4101745
-0.90309	DDSS SSSD DDSS
-0.7781513	DSDS SSSD DSDS
-0.6532125	DSSS SSSD DSSS
-0.4259687	SDSS SSSD DDSD	-0.0669468
-0.8750613	DDSD SSSS DDSS	-0.39794
-0.69897	DDSD SSSS DSSS
-0.9294189	DDSS SSSS DDSS
-0.7403627	DSDD SSSS DDDS
-0.6532125	DSDS SSSS DSSS
-0.6532125	DSSD SSSS DDSS
-0.6532125	DSSS SSSS DSDD

\4-grams:
-0.544068	DSDS DDDS DDDD DSSD
-0.8750613	DDDS DDSD DDDD DSDS
-0.6532125	DDSS DDSD DDDD DDDD
-0.4259687	DDDD DDSS DDDD DDSD	-0.07572071
-0.39794	DSSS DDSS DDDD DSDS
-0.1760913	DDSD DSDD DDDD DDSS
-0.544068	DSSS DSDD DDDD DDSD	-0.3309932
-0.1760913	DDSD DSDS DDDD DSSS
-0.1760913	DSDD DSDS DDDD DDSD
-0.1760913	DDSD DSSD DDDD DDDS
-0.544068	DSDD DSSS DDDD DSDD
-0.544068	DSSD SSDS DDDD DSSD
-0.1760913	DDSS SSSD DDDD DSSS
-0.6532125	DDSD DDDD DDDS DDDD
-0.4771213	DDSD DDDD DDDS DDSS
-0.39794	DSSD DDDD DDDS DDSS	-0.30103
-0.1760913	DDDS DDDS DDDS SDDS
-0.7781513	DDSD DDSD DDDS DDDD
-0.7781513	DDSD DDSD DDDS DDSS
-0.6532125	DDSS DDSD DDDS DSSD
-0.60206	DSDS DDSD DDDS DSDD
-0.60206	DSDS DDSD DDDS DSSD
-0.6532125	DSSD DDSD DDDS DSSS
-0.60206	DSSS DDSD DDDS DSSS
-0.6532125	DDSD DDSS DDDS DSDD
-0.544068	DDSS DDSS DDDS DSSS
-0.4259687	DSSD DDSS DDDS DDSS
-0.6532125	DSSS DDSS DDDS DSDS
-0.1760913	SDDD DDSS DDDS DSSS
-0.1760913	DSDS DSDD DDDS DDSD
-0.39794	DSSD DSDD DDDS DSSS
-0.6532125	DDSD DSDS DDDS DSDD
-0.4771213	DDSD DSDS DDDS SDDD	0
-0.6532125	DDSS DSDS DDDS DSSS
-0.7403627	DSDS DSDS DDDS DDDD
-0.544068	DDSS DSSD DDDS DSSD
-0.90309	DSSD DSSD DDDS DSDS
-0.90309	DSSD DSSD DDDS SDDD
-0.6532125	DDDS DSSS DDDS DSSS
-0.1760913	DDSD DSSS DDDS DDSD
-0.7403627	DDSS DSSS DDDS DDSD
-0.8129134	DSSS DSSS DDDS SDSD
-0.1760913	DSSS SDDS DDDS DSSS
-0.60206	DSDS SDSD DDDS DDSS
-0.60206	DSDS SDSD DDDS DSDD
-0.1760913	DDSS SSDD DDDS DSSD
-0.1760913	DDSS SSDS DDDS DSSS
-0.4259687	DDDS DDDD DDSD DSDD
-0.544068	DDSS DDDD DDSD DSDS
-0.544068	DSDD DDDD DDSD DDDS
-0.7403627	DDSD DDDS DDSD DDDS
-0.39794	DSDS DDDS DDSD DDDD
-0.6532125	DSSD DDDS DDSD DDDD
-0.1760913	SDSS DDDS DDSD DSSD
-0.7403627	DDSD DDSD DDSD DSSS
-0.6532125	DDSS DDSD DDSD DDSD
-0.6532125	DSDS DDSD DDSD DDDS
-0.8129134	DSSD DDSD DDSD DDDS
-0.6368221	DSSD DDSD DDSD DSSS
-0.544068	DSSS DDSD DDSD DSDS
-0.1760913	DDDD DDSS DDSD SDSD
-0.544068	DDDS DDSS DDSD DSSS
-0.544068	DDSD DDSS DDSD DDDS
-0.7403627	DDSS DDSS DDSD DDDD
-0.544068	DSDD DDSS DDSD DSSS
-0.5228788	DSSD DDSS DDSD DDSS	-0.1426675
-0.4259687	DDDS DSDD DDSD DSSS
-0.39794	DDSS DSDD DDSD DSDD
-0.6532125	SDSD DSDD DDSD SDSD
-0.39794	SDSS DSDD DDSD DDSD
-0.39794	DDDD DSDS DDSD DDSD
-0.39794	DDDS DSDS DDSD DSDS
-0.5228788	DDSS DSDS DDSD DSSS
-0.8129134	DSDS DSDS DDSD DDSD
-0.8129134	DSDS DSDS DDSD DSDD
-0.8129134	DSDS DSDS DDSD DSSS
-0.90309	DDSD DSSD DDSD DDDS
-0.7269987	DDSD DSSD DDSD DDSD
-0.90309	DDSD DSSD DDSD DSSD
-0.8750613	DDSS DSSD DDSD DSDS
-0.7403627	DSDS DSSD DDSD DDSD
-0.8129134	DSSD DSSD DDSD SDDD
-0.8750613	DSSS DSSD DDSD DDDD
-0.8750613	DSSS DSSD DDSD DDSD
-0.8750613	DSSS DSSD DDSD DSDS
-0.7781513	DDDS DSSS DDSD DDSS
-0.7781513	DDDS DSSS DDSD DSSD
-0.7403627	DDSD DSSS DDSD DDDS
-0.7781513	DDSS DSSS DDSD DDDS
-0.7781513	DDSS DSSS DDSD DSSS
-0.8129134	DSSD DSSS DDSD DDDD
-0.5642715	DSSS DSSS DDSD DSSD	-0.09691003
-0.7403627	DSSS DSSS DDSD DSSS
-0.4259687	SDSD DSSS DDSD DSDS
-0.544068	DSSD SDSD DDSD DDSS	-0.30103
-0.39794	SDSS SSSD DDSD DSSD
-0.6532125	DDDD DDDS DDSS DDSS
-0.4771213	DDDD DDDS DDSS DSSS	-0.1346986
-0.7403627	DDSD DDDS DDSS DDSS
-0.39794	DSSD DDDS DDSS DDSD
-0.1249387	SDDS DDDS DDSS DSSD
-0.7781513	DDSS DDSD DDSS DSSS
-0.7781513	DDSS DDSD DDSS SSSD
-0.39794	DSDD DDSD DDSS DSSS
-0.7781513	DSSD DDSD DDSS DSSD
-0.7781513	DSSD DDSD DDSS SDSS
-0.544068	DSSS DDSD DDSS DDDS
-0.3679768	DSSS DDSD DDSS DDSS	-0.1426675
-0.4771213	SDSD DDSD DDSS DDSD
-0.4771213	SDSD DDSD DDSS SDSD
-0.544068	DDDD DDSS DDSS DDSS	-0.3869447
-0.8129134	DDDS DDSS DDSS DSDD
-0.7781513	DDSD DDSS DDSS DDDS
-0.7781513	DDSD DDSS DDSS DSSD
-0.90309	DDSS DDSS DDSS DDDD
-0.7269987	DDSS DDSS DDSS DDSS	-0.1638568
-0.7269987	DDSS DDSS DDSS DSSD
-0.90309	DDSS DDSS DDSS DSSS	-0.39794
-0.544068	DSDD DDSS DDSS DSSD
-0.8129134	DSSD DDSS DDSS DSSD
-0.60206	DDDS DSDD DDSS DDSD
-0.60206	DDDS DSDD DDSS DDSS
-0.39794	DDSS DSDD DDSS DSDS
-0.39794	DSSS DSDD DDSS DSDD
-0.7403627	DDDD DSDS DDSS DDDS
-0.6532125	DSDS DSDS DDSS DSSS
-0.69897	DSSD DSDS DDSS DSSD	-0.01772878
-0.69897	DSSD DSDS DDSS DSSS
-0.8750613	DSSD DSDS DDSS SSDS
-0.7403627	DSSS DSDS DDSS DSDD
-0.544068	SDSS DSDS DDSS DSDS
-0.7781513	DDSS DSSD DDSS DSSD
-0.7781513	DDSS DSSD DDSS SDSD
-0.8129134	DSDD DSSD DDSS DDDS
-0.6532125	DSDS DSSD DDSS DSDD
-0.7403627	DSSD DSSD DDSS DSSS
-0.60206	DSSS DSSD DDSS DDSD	-0.3222193
-0.60206	DSSS DSSD DDSS DDSS
-0.6532125	DDDS DSSS DDSS DDSS
-0.7403627	DDSS DSSS DDSS DSSD
-0.5642715	DDSS DSSS DDSS DSSS
-0.8129134	DSDS DSSS DDSS DDDS
-0.8129134	DSDS DSSS DDSS DSDD
-0.8129134	DSDS DSSS DDSS DSSD
-0.7781513	DSSD DSSS DDSS DDDS
-0.7781513	DSSD DSSS DDSS DDSD
-0.6532125	DDSD SDDD DDSS DDDS	0
-0.1760913	DSSS SDDS DDSS DDSD
-0.544068	DSSS SDSS DDSS DDSD
-0.1760913	DDSD SSSS DDSS DDSD
-0.39794	DDSD DDDD DSDD DDSD
-0.6532125	DSDS DDDS DSDD DDSD
-0.39794	DSSS DDSD DSDD DSSD
-0.1760913	DDDD DSDD DSDD DSSD
-0.39794	DDSD DSDD DSDD DDSD
-0.544068	DSSS DSDS DSDD DSSS
-0.60206	DDSD DSSD DSDD DDDS
-0.60206	DDSD DSSD DSDD DSSD
-0.8129134	DSSD DSSD DSDD DSSS
-0.60206	DDSD DSSS DSDD DDSS
-0.60206	DDSD DSSS DSDD DSSS
-0.30103	DSDD DSSS DSDD DSSD
-0.30103	DSDS DSSS DSDD DSSS
-0.544068	DSSS DSSS DSDD DSSD
-0.39794	DSSS SDSD DSDD DDSD
-0.6532125	DDDS DDDD DSDS DDDS
-0.39794	DDSS DDDD DSDS DDSS
-0.1760913	DDDD DDDS DSDS DSSS
-0.544068	DDSD DDDS DSDS DDSD
-0.39794	DDDS DDSD DSDS DDSD
-0.60206	DDSD DDSD DSDS DSDS
-0.60206	DDSD DDSD DSDS DSSD
-0.39794	DDSS DDSD DSDS DDDS	-0.30103
-0.544068	DSSD DDSD DSDS DSDS
-0.7403627	DSSS DDSD DSDS DDDD	0
-0.7403627	DSSS DDSD DSDS DDDS
-0.7403627	DSSS DDSD DSDS DDSD
-0.7781513	DSDS DDSS DSDS DDSD	-0.3222193
-0.7781513	DSDS DDSS DSDS DSDS
-0.6532125	DSSD DDSS DSDS SDSD
-0.7403627	DSSS DDSS DSDS DDSS
-0.5642715	DSSS DDSS DSDS DSDS	-0.1249387
-0.1760913	SDDD DDSS DSDS DSSS	-0.2730013
-0.39794	SDSD DDSS DSDS DSSD
-0.6532125	DSSS DSDD DSDS DDDS
-0.544068	DDDD DSDS DSDS DDSD
-0.6532125	DDSD DSDS DSDS DSDS
-0.69897	DDSS DSDS DSDS DDSD
-0.69897	DDSS DSDS DSDS DSDD
-0.90309	DSDS DSDS DSDS DDDS
-0.90309	DSDS DSDS DSDS DDSS
-0.6532125	DSSD DSDS DSDS DDDS
-0.8129134	DSSS DSDS DSDS DDSS
-0.6532125	DDSD DSSD DSDS DDSS	-0.3802113
-0.90309	DDSS DSSD DSDS DDDD
-0.90309	DDSS DSSD DSDS DSSS
-0.7403627	DSDD DSSD DSDS DDSS
-0.6532125	DSSD DSSD DSDS DDSS
-0.7781513	DDDS DSSS DSDS DSSS
-0.7781513	DDDS DSSS DSDS SDSS
-0.8129134	DDSD DSSS DSDS DSDS
-0.7403627	DDSS DSSS DSDS DSSD
-0.5228788	DSDD DSSS DSDS DSSS
-0.7403627	DSDS DSSS DSDS DSSD
-0.7403627	DSSD DSSS DSDS DDSS	-0.3899711
-0.9777236	DSSS DSSS DSDS DDSD
-0.9777236	DSSS DSSS DSDS DDSS
-0.9777236	DSSS DSSS DSDS DSSS	-0.39794
-0.544068	DSDD SDDS DSDS DSSS
-0.1760913	DDDS SDSS DSDS DSDS
-0.39794	DSSD SDSS DSDS DSDD
-0.1249387	DDSD DDDD DSSD DDDS
-0.39794	DSDD DDDD DSSD DSSD
-0.1760913	SDSS DDDD DSSD DDSD
-0.544068	DDDS DDDS DSSD DSDS
-0.5228788	DDSD DDDS DSSD DSSD
-0.544068	DSDS DDDS DSSD DSSD
-0.6532125	DSSD DDDS DSSD DDSS
-0.39794	DSSS DDDS DSSD DSSD	-0.3802113
-0.4259687	DSDD DDSD DSSD DDSD
-0.7403627	DSDS DDSD DSSD DSDD
-0.60206	DSSS DDSD DSSD DDSD
-0.69897	DDDS DDSS DSSD DSSD
-0.69897	DDDS DDSS DSSD DSSS
-0.544068	DDSD DDSS DSSD DDSD
-0.7781513	DDSS DDSS DSSD DDSS
-0.9542425	DDSS DDSS DSSD DSDS
-0.7781513	DDSS DDSS DSSD DSSD	-0.1512677
-0.9542425	DDSS DDSS DSSD SDDD
-0.4259687	DSDS DDSS DSSD DDSS
-0.7781513	DSSS DDSS DSSD DSSD
-0.7781513	DSSS DDSS DSSD DSSS
-0.1760913	SDDD DDSS DSSD DDDS
-0.8129134	DDSD DSDD DSSD DDSS
-0.8129134	DDSD DSDD DSSD DSDS
-0.8129134	DDSD DSDD DSSD DSSS
-0.6532125	DDSD DSDS DSSD DSDS
-0.8750613	DDSS DSDS DSSD DDSD
-0.6532125	DSDD DSDS DSSD DDDD
-0.8750613	DDDS DSSD DSSD DSDD
-0.69897	DDDS DSSD DSSD DSSS
-0.8239087	DDSS DSSD DSSD DDDS
-1	DDSS DSSD DSSD DDSS
-1	DDSS DSSD DSSD DSSD
-0.39794	DSDD DSSD DSSD DDSS
-0.6532125	DSSD DSSD DSSD DSSS
-0.69897	DSSS DSSD DSSD DDDS
-0.69897	DSSS DSSD DSSD DSDS
-0.544068	SDSS DSSD DSSD DDSD
-0.1760913	SSSS DSSD DSSD DDSD
-0.90309	DDDS DSSS DSSD DDDD
-0.90309	DDDS DSSS DSSD DDSD
-0.8129134	DDSD DSSS DSSD DDDS
-0.8129134	DDSD DSSS DSSD DDSD
-0.8129134	DDSD DSSS DSSD DSSD
-0.69897	DSDD DSSS DSSD DDSS
-0.69897	DSDD DSSS DSSD DSSS
-0.7403627	DSSD DSSS DSSD DSSS
-0.6532125	DSSS DSSS DSSD DSSS
-0.544068	DDSS SDSD DSSD DDSS
-0.7403627	DDSS SDSS DSSD DSSD
-0.544068	DDDS DDDS DSSS DDSD
-0.6532125	DDSD DDDS DSSS DDSS
-0.6532125	DDSS DDDS DSSS DSSD
-0.7403627	DSSS DDDS DSSS DSDD
-0.5642715	DSSS DDDS DSSS DSSD
-0.544068	DDDS DDSD DSSS DSSD
-0.8129134	DDSD DDSD DSSS DSSS
-0.6368221	DDSD DDSD DSSS SDDD
-0.8129134	DDSS DDSD DSSS DDSS
-0.7781513	DSDD DDSD DSSS DDSD	-0.3899711
-0.7781513	DSDD DDSD DSSS DSSS
-0.4771213	DSSS DDSD DSSS DSDS
-0.8750613	DSSS DDSD DSSS DSSS
-0.1760913	SSDD DDSD DSSS SDSD	-0.3679768
-0.1760913	DDDD DDSS DSSS DDSD
-0.7403627	DDDS DDSS DSSS DDDS
-0.8129134	DDSD DDSS DSSS DSSD
-0.7781513	DDSS DDSS DSSS DDSS
-0.7781513	DDSS DDSS DSSS DSDS
-0.8129134	DSDS DDSS DSSS DDSD
-0.8129134	DSSS DDSS DSSS DDDS
-0.8129134	DSDS DSDD DSSS DDSD
-0.6368221	DSDS DSDD DSSS DSSD
-0.6532125	DSSD DSDD DSSS DDSD
-0.9294189	DSSS DSDD DSSS DDDD
-0.9294189	DSSS DSDD DSSS DSDD
-0.7533277	DSSS DSDD DSSS DSDS	-0.0669468
-0.9294189	DSSS DSDD DSSS DSSS
-0.1249387	DDSD DSDS DSSS DDSS
-0.4259687	DDSS DSDS DSSS DSDS
-0.544068	DSDD DSDS DSSS DSSS
-0.9542425	DSSS DSDS DSSS DSDD
-0.9542425	DSSS DSDS DSSS DSDS
-0.7781513	DSSS DSDS DSSS DSSS
-0.1760913	DDDS DSSD DSSS DSSD
-0.544068	DDSD DSSD DSSS DDSD
-0.7403627	DSDS DSSD DSSS DDSD
-0.8129134	DSSD DSSD DSSS DSDS
-0.6690068	DSSS DSSD DSSS DDSS
-0.5797836	DDSD DSSS DSSS DSDS
-0.9777236	DDSD DSSS DSSS DSSS
-0.7781513	DDSS DSSS DSSS DSDS
-0.7781513	DDSS DSSS DSSS DSSS
-0.7781513	DSDS DSSS DSSS DDSD	-0.3388186
-0.7781513	DSDS DSSS DSSS DSSS	-0.4149733
-0.8750613	DSSS DSSS DSSS DDDS
-0.69897	DSSS DSSS DSSS DDSD
-0.8750613	DSSS DSSS DSSS DSSD
-0.8750613	DSSS DSSS DSSS DSSS
-0.544068	SDSD DSSS DSSS DDDS
-0.7403627	DSSS SDSD DSSS SDDS
-0.1760913	DDDS SDSS DSSS DSSS
-0.1760913	DDDD SSDS DSSS DDSD
-0.39794	DSDS DDDS SDDD DDSS
-0.39794	DSDD DDSD SDDD DDSS
-0.39794	DSSD DSSS SDDD DDSS
-0.1760913	DDSD DDSS SDDS DDSD
-0.1760913	DSSD DSDD SDDS DSDS
-0.1760913	DDSD DDDS SDSD DDSD
-0.1760913	DDDS DDSD SDSD DSSS
-0.4259687	DDSD DDSS SDSD DSSD	-0.07572071
-0.39794	DSSD DDSS SDSD DSDD
-0.1760913	DSSD DSDS SDSD DDDS
-0.6532125	DDSD DSSS SDSD DSDD
-0.1760913	DSSD DDDD SDSS DSSD
-0.1760913	DDSD DDDS SDSS DSSS	0
-0.39794	DSSS DDSD SDSS DSSD
-0.39794	DDSS DDSS SDSS DSSD
-0.09691001	DSDD DSDS SDSS DDSS
-0.1760913	DSDS DSDS SDSS DDSS
-0.1760913	DDDD DSSS SDSS DDSS
-0.544068	DSDS DSSS SDSS DDDS
-0.39794	DSDS DDSS SSDS DSDS
-0.39794	DDSD DSSD SSDS DDDD
-0.544068	DSDS DDSS SSSD DDDD	0

\5-grams:
-0.1760913	DSSS DDSD DSDS DDDD DSSS
-0.1760913	DSDS DDSS SSSD DDDD DSSS
-0.1760913	DDSD SDDD DDSS DDDS DSSS
-0.1760913	DDSS DDSD DSDS DDDS SDDD
-0.39794	DDDD DDSS DDDD DDSD DSDS
-0.1760913	DSSS DSDD DDDD DDSD DDDS
-0.1760913	DSSS DSSD DDSS DDSD DDSS
-0.1760913	DSDS DDSS DSDS DDSD DSSS
-0.1760913	DSDD DDSD DSSS DDSD DDDS
-0.1760913	DSDS DSSS DSSS DDSD DSSD
-0.1760913	DSSD DDDD DDDS DDSS DSSS
-0.39794	DSSD DDSS DDSD DDSS SSSD
-0.1760913	DSSD SDSD DDSD DDSS DDSD
-0.39794	DSSS DDSD DDSS DDSS DSSD
-0.1760913	DDDD DDSS DDSS DDSS DDSS
-0.39794	DDSS DDSS DDSS DDSS DSSS
-0.1760913	DDSD DSSD DSDS DDSS DSSS
-0.1760913	DSSD DSSS DSDS DDSS DSDD
-0.39794	DSSS DDSS DSDS DSDS DDSD
-0.39794	DSSS DSDD DSSS DSDS DSSS
-0.39794	DSSS DSSS DDSD DSSD DDSD
-0.39794	DSSD DSDS DDSS DSSD DDSS
-0.1760913	DSSS DDDS DSSD DSSD DSSS
-0.39794	DDSS DDSS DSSD DSSD DDDS
-0.39794	DDSD DDSS SDSD DSSD DDSS
-0.39794	DDDD DDDS DDSS DSSS DDDS
-0.1760913	DDSS DDSS DDSS DSSS DDSS
-0.1760913	SDDD DDSS DSDS DSSS DSDS
-0.1760913	DSSS DSSS DSDS DSSS DSSS
-0.1760913	DSDS DSSS DSSS DSSS DSSS
-0.1760913	DDSD DDDS SDSS DSSS DSSS
-0.39794	DDSD DSDS DDDS SDDD DDSS
-0.1760913	SSDD DDSD DSSS SDSD DSDD

\end\
