
\data\
ngram 1=18
ngram 2=255
ngram 3=814
ngram 4=209
ngram 5=17

\1-grams:
-2.340318	</s>
-99	<s>
-1.620161	DDDD	1.544438
-1.10669	DDDS	1.08204
-1.321724	DDSD	1.281986
-0.93378	DDSS	0.9170719
-1.392152	DSDD	1.348538
-0.9715685	DSDS	0.9533733
-1.20798	DSSD	1.177082
-0.8980364	DSSS	0.8826252
-1.630626	SDDD	1.553212
-1.222221	SDDS	1.190329
-1.44407	SDSD	1.392149
-1.024612	SDSS	1.004108
-1.64135	SSDD	0.7515814
-1.247775	SSDS	1.214024
-1.417335	SSSD	1.368347
-1.20798	SSSS	1.177082

\2-grams:
-1.522879	DDDD DDDD
-1.39794	DDDD DDDS	-0.09702981
-2	DDDD DDSD
-1.154902	DDDD DDSS	-0.04832918
-2	DDDD DSDD
-0.9586073	DDDD DSDS	-0.1017145
-1	DDDD DSSD	-0.03918426
-0.8239087	DDDD DSSS	0.05032539
-1.69897	DDDD SDDD
-1.39794	DDDD SDDS
-1.39794	DDDD SDSD	-0.1241735
-1	DDDD SDSS	-0.1046996
-1.69897	DDDD SSDD
-2	DDDD SSDS
-1.69897	DDDD SSSD
-1.154902	DDDD SSSS
-1.559308	DDDS DDDD	-0.05412536
-1.047425	DDDS DDDS	-0.02332345
-1.421005	DDDS DDSD	-0.1810727
-1.031034	DDDS DDSS	-0.03604057
-1.258278	DDDS DSDD	0.007322669
-1	DDDS DSDS	0.2114925
-1.286307	DDDS DSSD	-0.03313129
-0.9710363	DDDS DSSS	0.2185497
-1.462398	DDDS SDDD	-0.08170622
-1.31627	DDDS SDDS	-0.0628885
-1.421005	DDDS SDSD	-0.00152652
-1.161368	DDDS SDSS	-0.02369058
-1.6173	DDDS SSDD	-0.1940028
-1.258278	DDDS SSDS	-0.1319842
-1.559308	DDDS SSSD	-0.02907145
-1.064458	DDDS SSSS	0.0663259
-2.262451	DDSD DDDD
-1.359361	DDSD DDDS	-0.01304967
-1.308209	DDSD DDSD	-0.06998736
-0.9614211	DDSD DDSS	-0.01733181
-1.563481	DDSD DSDD
-0.9614211	DDSD DSDS	-0.05631836
-1.359361	DDSD DSSD	-0.1267987
-0.9614211	DDSD DSSS	0.08071677
-1.78533	DDSD SDDD
-1.116323	DDSD SDDS	-0.0639378
-1.308209	DDSD SDSD	-0.03479829
-1.032002	DDSD SDSS	-0.0385007
-1.660391	DDSD SSDD	-0.1029029
-1.359361	DDSD SSDS	-0.1428907
-1.359361	DDSD SSSD	0.006733384
-1.148508	DDSD SSSS	0.02572357
-1.548185	DDSS DDDD	-0.0711453
-1.196002	DDSS DDDS	0.08296296
-1.284943	DDSS DDSD	0.03685468
-1.025306	DDSS DDSS	0.261462
-1.372093	DDSS DSDD	-0.1398924
-0.9283959	DDSS DSDS	-0.04441914
-1.265638	DDSS DSSD	-0.1221062
-0.8639379	DDSS DSSS	0.2182145
-1.673123	DDSS SDDD	0.01258913
-1.122216	DDSS SDDS	-0.0005486608
-1.513422	DDSS SDSD	-0.03107642
-1.122216	DDSS SDSS	0.1650991
-1.585973	DDSS SSDD	-0.09947906
-1.326336	DDSS SSDS	-0.06316142
-1.513422	DDSS SSSD	-0.1344841
-1.180208	DDSS SSSS	0.1181575
-2.1959	DSDD DDDD
-1.049772	DSDD DDDS	-0.1034499
-1.350802	DSDD DDSD	-0.02228718
-1.154507	DSDD DDSS	-0.05962771
-1.718778	DSDD DSDD
-0.8341718	DSDD DSDS	0.08186209
-1.29281	DSDD DSSD	-0.07980211
-1.019808	DSDD DSSS	-0.07132286
-2.1959	DSDD SDDD
-1.241657	DSDD SDDS	-0.03066299
-1.350802	DSDD SDSD
-0.9406272	DSDD SDSS	-0.1533975
-1.718778	DSDD SSDD	-0.1836444
-1.350802	DSDD SSDS	-0.03660312
-1.1959	DSDD SSSD	-0.001239076
-1.59384	DSDD SSSS
-1.812913	DSDS DDDD	-0.05563312
-1.059586	DSDS DDDS	0.0509555
-1.386945	DSDS DDSD	-0.08624309
-0.9575961	DSDS DDSS	0.256067
-1.812913	DSDS DSDD	-0.2322351
-0.9890046	DSDS DSDS	0.007090688
-1.229337	DSDS DSSD	-0.04426381
-0.8351898	DSDS DSSS	0.1716062
-1.511883	DSDS SDDD	-0.06567878
-1.176091	DSDS SDDS	-0.03374952
-1.312311	DSDS SDSD	-0.01346207
-1.099703	DSDS SDSS	-0.03858247
-1.687975	DSDS SSDD	-0.05489516
-1.386945	DSDS SSDS	-0.1482839
-1.360616	DSDS SSSD	-0.05179545
-1.290035	DSDS SSSS	0.02368824
-1.890235	DSSD DDDD
-1.088602	DSSD DDDS	-0.05699242
-1.288175	DSSD DDSD	-0.08259573
-0.904958	DSSD DDSS	0.1776606
-1.413113	DSSD DSDD	-0.03284281
-1.005628	DSSD DSDS	-0.02724499
-1.522258	DSSD DSSD
-1.005628	DSSD DSSS	-0.06799978
-1.668386	DSSD SDDD	-0.09564201
-1.367356	DSSD SDDS	-0.08046046
-1.464266	DSSD SDSD	-0.04658013
-1.024933	DSSD SDSS	-0.04636011
-1.668386	DSSD SSDD	-0.06591932
-1.253413	DSSD SSDS	-0.1195552
-1.288175	DSSD SSSD	-0.02288909
-1.136907	DSSD SSSS	0.008279711
-1.485721	DSSS DDDD	-0.05115252
-1.093611	DSSS DDDS	-0.07120463
-1.339593	DSSS DDSD	-0.0253506
-0.9542425	DSSS DDSS	0.1275342
-1.281601	DSSS DSDD	0.006723195
-1.0086	DSSS DSDS	0.1551008
-1.246839	DSSS DSSD	0.02566114
-0.9805714	DSSS DSSS	0.253997
-1.816715	DSSS SDDD	-0.0590482
-1.230449	DSSS SDDS	0.03883803
-1.485721	DSSS SDSD	-0.02779344
-0.9542425	DSSS SDSS	0.1253561
-1.816715	DSSS SSDD	-0.03434632
-1.170451	DSSS SSDS	0.10317
-1.360783	DSSS SSSD	-0.08398014
-1.40654	DSSS SSSS	-0.1852017
-1.514105	SDDD DDDD	-0.1760913
-1.213075	SDDD DDDS	-0.2663615
-1.514105	SDDD DDSD
-0.9912261	SDDD DDSS	-0.1282041
-1.514105	SDDD DSDD
-1.088136	SDDD DSDS	-0.02617775
-1.292256	SDDD DSSD	-0.08618083
-0.845098	SDDD DSSS	-0.05016316
-1.514105	SDDD SDDD
-1.292256	SDDD SDDS
-1.514105	SDDD SDSD
-1.036984	SDDD SDSS	0.01321536
-1.991226	SDDD SSDD
-1.514105	SDDD SSDS
-1.389166	SDDD SSSD
-1.690196	SDDD SSSS
-1.354108	SDDS DDDD	-0.09214624
-1.451018	SDDS DDDS	-0.04921803
-1.312716	SDDS DDSD	0.006797798
-0.9391351	SDDS DDSS	-0.06794068
-1.312716	SDDS DSDD	0.03453164
-1.098836	SDDS DSDS	-0.04215127
-1.178017	SDDS DSSD	-0.03566362
-0.8917105	SDDS DSSS	-0.01718745
-2.053078	SDDS SDDD
-1.312716	SDDS SDDS	-0.08205421
-1.50901	SDDS SDSD
-1.178017	SDDS SDSS	0.05429277
-1.655138	SDDS SSDD	-0.08081087
-1.098836	SDDS SSDS	0.04155985
-1.274927	SDDS SSSD	-0.05238807
-1.274927	SDDS SSSS	-0.01681821
-1.453318	SDSD DDDD
-1.038345	SDSD DDDS	-0.05995928
-1.249198	SDSD DDSD	-0.05686323
-0.9218394	SDSD DDSS	-0.0206036
-1.453318	SDSD DSDD	-0.04034963
-1.30719	SDSD DSDS	-0.08471373
-1.30719	SDSD DSSD	-0.02741405
-0.9761971	SDSD DSSS	-0.03191427
-1.374137	SDSD SDDD
-1.30719	SDSD SDDS	-0.01947222
-1.550228	SDSD SDSD
-1.073107	SDSD SDSS	-0.02409985
-1.851258	SDSD SSDD
-1.30719	SDSD SSDS	-0.04748826
-1.851258	SDSD SSSD
-1.198046	SDSD SSSS	-0.09653706
-2.063208	SDSS DDDD
-1.063208	SDSS DDDS	-0.0495809
-1.426386	SDSS DDSD	-0.1389494
-0.8413595	SDSS DDSS	0.05478466
-1.33621	SDSS DSDD	-0.006179795
-1.021816	SDSS DSDS	0.0008574724
-1.160118	SDSS DSSD	-0.164123
-0.8682316	SDSS DSSS	0.3993616
-1.637239	SDSS SDDD	-0.1848652
-1.261576	SDSS SDDS	0.02040938
-1.841359	SDSS SDSD
-1.048968	SDSS SDSS	0.2129705
-1.695231	SDSS SSDD	-0.02424599
-1.261576	SDSS SSDS	-0.08061141
-1.695231	SDSS SSSD	-0.03317997
-1.261576	SDSS SSSS	0.09319809
-1.977724	SSDD DDDD
-1.074634	SSDD DDDS	-0.02135384
-1.199572	SSDD DDSD	-0.03688668
-1.676694	SSDD DDSS	-0.422627
-1.199572	SSDD DSDD	-0.01835532
-1.023481	SSDD DSDS	-0.02439444
-1.023481	SSDD DSSD	-0.06721298
-0.9777236	SSDD DSSS	-0.03504275
-1.500602	SSDD SDDS
-1.278754	SSDD SDSD
-0.9777236	SSDD SDSS	-0.1078353
-1.500602	SSDD SSDD
-1.676694	SSDD SSDS
-1.500602	SSDD SSSD
-1.500602	SSDD SSSS	-0.1704632
-1.853292	SSDS DDDD
-1.099965	SSDS DDDS	-0.1033023
-1.251233	SSDS DDSD	0.01996488
-0.9154404	SSDS DDSS	-0.05927044
-1.330414	SSDS DSDD	-0.1919984
-1.099965	SSDS DSDS	-0.0371199
-1.099965	SSDS DSSD	-0.1189733
-0.9879911	SSDS DSSS	-0.04351637
-1.631444	SSDS SDDD
-1.485316	SSDS SDDS	-0.2768277
-1.631444	SSDS SDSD
-1.05166	SSDS SDSS	-0.03254214
-2.029384	SSDS SSDD
-1.184286	SSDS SSDS	-0.07006666
-1.552263	SSDS SSSD
-1.126294	SSDS SSSS	-0.08404671
-1.574031	SSSD DDDD
-1.330993	SSSD DDDS	-0.04790323
-1.273001	SSSD DDSD	-0.03901298
-0.8336686	SSSD DDSS	-0.02605337
-1.69897	SSSD DSDD
-1.029963	SSSD DSDS	-0.03783499
-1.176091	SSSD DSSD	0.009421069
-1.062148	SSSD DSSS	0.005488947
-1.477121	SSSD SDDD	-0.1790356
-1.176091	SSSD SDDS	-0.1617654
-1.69897	SSSD SDSD
-1.134699	SSSD SDSS	-0.07472988
-1.574031	SSSD SSDD	-0.1321923
-1.477121	SSSD SSDS	-0.2234692
-1.574031	SSSD SSSD	-0.1223251
-1.134699	SSSD SSSS	-0.003711946
-1.589205	SSSS DDDD	-0.0165691
-1.163236	SSSS DDDS	-0.06496051
-1.522258	SSSS DDSD	-0.05313763
-0.9359922	SSSS DDSS	0.07645839
-1.668386	SSSS DSDD
-0.9359922	SSSS DSDS	0.001673579
-1.367356	SSSS DSSD	-0.06224956
-0.9523826	SSSS DSSS	-0.06227031
-1.765296	SSSS SDDD
-1.288175	SSSS SDDS	-0.08635082
-1.464266	SSSS SDSD	-0.03523238
-1.005628	SSSS SDSS	-0.1009463
-1.413113	SSSS SSDD	-0.04042188
-1.112083	SSSS SSDS	-0.06983632
-1.589205	SSSS SSSD	-0.05718695
-1.253413	SSSS SSSS	-0.2527801

\3-grams:
-0.6690068	DDDS DDDD DSDS
-0.9777236	DDSS DDDD DDSS
-0.8016323	DDSS DDDD DSDS	-0.4607309
-0.9777236	DDSS DDDD DSSD
-0.9777236	DDSS DDDD SDSS
-0.7403627	DSDS DDDD DDSS
-0.79588	DSSS DDDD DSSS
-0.9208187	DSSS DDDD SDDS
-0.39794	SDDD DDDD SDSS
-0.50515	SDDS DDDD DSSS
-0.7403627	SSSS DDDD DSSS
-0.544068	DDDD DDDS DSSS
-1.255273	DDDS DDDS DDDS
-1.255273	DDDS DDDS DDSS
-0.8573325	DDDS DDDS DSDS	-0.08795518
-0.9542425	DDDS DDDS DSSS
-1.255273	DDDS DDDS SDDS
-1.255273	DDDS DDDS SDSS
-1.255273	DDDS DDDS SSDS
-0.8573325	DDDS DDDS SSSS
-0.8750613	DDSD DDDS DSSS
-1.290035	DDSS DDDS DDDD
-1.113943	DDSS DDDS DDDS	-0.1569079
-1.113943	DDSS DDDS DDSS	-0.1492981
-0.9890046	DDSS DDDS DSDS
-1.290035	DDSS DDDS DSSD
-1.113943	DDSS DDDS DSSS
-1.290035	DDSS DDDS SDSS
-1.290035	DDSS DDDS SSDD
-1.290035	DDSS DDDS SSDS
-1.290035	DDSS DDDS SSSS
-1.060698	DSDD DDDS DDDD
-1.060698	DSDD DDDS DSSD
-1.060698	DSDD DDDS DSSS
-1.060698	DSDD DDDS SDSS
-1.060698	DSDD DDDS SSSD
-1.389166	DSDS DDDS DDDD	-0.3723859
-1.088136	DSDS DDDS DDSD
-1.389166	DSDS DDDS DDSS
-1.088136	DSDS DDDS DSDD
-1.389166	DSDS DDDS DSSD
-1.088136	DSDS DDDS DSSS
-1.389166	DSDS DDDS SDDD	-0.4259687
-1.389166	DSDS DDDS SDSD
-1.213075	DSDS DDDS SDSS
-1.213075	DSDS DDDS SSDS	-0.5228788
-1.389166	DSDS DDDS SSSS
-0.8893017	DSSD DDDS DDDS
-0.8893017	DSSD DDDS DSDS
-1.190332	DSSD DDDS SDSD
-1	DSSS DDDS DDSS	-0.03659381
-1.39794	DSSS DDDS DSDD
-1	DSSS DDDS DSDS
-0.9208187	DSSS DDDS DSSD	-0.050938
-1.221849	DSSS DDDS DSSS
-1.39794	DSSS DDDS SDDD
-1.39794	DSSS DDDS SDDS
-0.8538719	DSSS DDDS SSSS	-0.02679318
-0.6532125	SDDD DDDS DDSS
-0.4771213	SDDD DDDS SSSS
-0.845098	SDDS DDDS DDSS
-0.845098	SDDS DDDS DSSS	-0.4259687
-0.8653014	SDSD DDDS DDSS
-1.041393	SDSD DDDS DSDS
-1.041393	SDSD DDDS SSDD	-0.3899711
-1.010724	SDSS DDDS DDDS
-1.010724	SDSS DDDS DDSS	-0.1113659
-1.135663	SDSS DDDS DSDD	-0.1686032
-1.010724	SDSS DDDS DSDS
-1.135663	SDSS DDDS DSSS
-1.135663	SDSS DDDS SDDS
-1.135663	SDSS DDDS SDSS
-1.135663	SDSS DDDS SSDS	-0.1426675
-0.8750613	SSDD DDDS DDDS
-1.130334	SSDS DDDS DDSD
-0.9542425	SSDS DDDS DSSS
-0.9542425	SSDS DDDS SDDD
-0.9542425	SSDS DDDS SDSS
-0.8129134	SSSD DDDS DSDD
-0.8293038	SSSS DDDS DDDS
-1.130334	SSSS DDDS DDSD
-1.130334	SSSS DDDS SSDS
-0.7533277	DDDS DDSD SDDS	-0.1823402
-0.7533277	DDDS DDSD SDSD	-0.1316721
-0.9294189	DDDS DDSD SSSS
-0.8750613	DDSD DDSD DDSS
-0.8750613	DDSD DDSD DSDS
-0.8750613	DDSD DDSD SDDS
-1.230449	DDSS DDSD DDSS
-1.054358	DDSS DDSD DSDS
-1.230449	DDSS DDSD DSSD
-1.230449	DDSS DDSD DSSS
-1.230449	DDSS DDSD SDSD
-0.8325089	DDSS DDSD SDSS
-0.8129134	DSDD DDSD DDSS
-1.079181	DSDS DDSD DDSD
-1.079181	DSDS DDSD DDSS
-0.90309	DSDS DDSD DSDS
-0.90309	DSDS DDSD DSSS
-1.079181	DSDS DDSD SSSD
-1.079181	DSDS DDSD SSSS
-0.60206	DSSD DDSD SDSS
-1.028029	DSSS DDSD DDSS
-0.90309	DSSS DDSD DSDS	-0.08398014
-1.20412	DSSS DDSD SDSS
-1.028029	DSSS DDSD SSDS
-1.20412	DSSS DDSD SSSD
-1.20412	DSSS DDSD SSSS
-1.021189	SDDS DDSD DSSS
-0.845098	SDSD DDSD DSSS
-0.845098	SDSD DDSD SDDS
-1	SDSS DDSD DDDS
-1	SDSS DDSD DDSD	-0.4149733
-0.69897	SDSS DDSD DDSS	-0.1180993
-1	SDSS DDSD DSSS
-0.7403627	SSDD DDSD DSSS
-1.041393	SSDS DDSD DSDS
-1.041393	SSDS DDSD DSSS
-0.845098	SSSD DDSD DSDS	-0.4149733
-0.845098	SSSD DDSD DSSS
-0.8129134	SSSS DDSD SSSD
-0.8129134	DDDD DDSS DSSD
-1.290035	DDDS DDSS DDDS
-1.113943	DDDS DDSS DDSD
-1.290035	DDDS DDSS DDSS
-0.8129134	DDDS DDSS DSDS
-1.290035	DDDS DDSS DSSD
-1.113943	DDDS DDSS SDSD
-1.113943	DDDS DDSS SDSS
-1.290035	DDDS DDSS SSSS
-1.20412	DDSD DDSS DDSD
-1.028029	DDSD DDSS DDSS	-0.1974894
-1.20412	DDSD DDSS DSDD
-1.028029	DDSD DDSS DSDS
-1.028029	DDSD DDSS SDSS
-1.439333	DDSS DDSS DDDD
-0.8952646	DDSS DDSS DDDS	-0.03778856
-1.138303	DDSS DDSS DDSS
-1.263241	DDSS DDSS DSDS
-1.439333	DDSS DDSS DSSD	-0.3899711
-0.9622114	DDSS DDSS DSSS	-0.1498461
-1.263241	DDSS DDSS SDDS
-1.439333	DDSS DDSS SDSD
-1.439333	DDSS DDSS SDSS
-1.439333	DDSS DDSS SSDS
-1.439333	DDSS DDSS SSSD
-1.439333	DDSS DDSS SSSS
-0.6766936	DSDD DDSS DDSS	-0.08700658
-1.278754	DSDS DDSS DDDS
-1.454845	DSDS DDSS DDSD
-1.153815	DSDS DDSS DDSS
-1.454845	DSDS DDSS DSDS	-0.4343693
-1.454845	DSDS DDSS DSSD	-0.4210053
-1.056905	DSDS DDSS DSSS
-0.9777236	DSDS DDSS SDDS	-0.1581797
-1.278754	DSDS DDSS SDSD
-1.153815	DSDS DDSS SDSS
-1.278754	DSDS DDSS SSDS	-0.1249387
-1.454845	DSDS DDSS SSSD
-1.056905	DSDS DDSS SSSS
-1.322219	DSSD DDSS DDDS
-1.146128	DSSD DDSS DDSS
-0.9242793	DSSD DDSS DSDS	-0.1303338
-1.322219	DSSD DDSS DSSD	-0.3899711
-1.021189	DSSD DDSS DSSS
-1.146128	DSSD DDSS SDDS	-0.1581797
-1.322219	DSSD DDSS SDSS
-1.322219	DSSD DDSS SSDS
-1.322219	DSSD DDSS SSSS
-1.120574	DSSS DDSS DDDD	-0.0608398
-1.518514	DSSS DDSS DDDS
-1.342423	DSSS DDSS DDSD
-1.518514	DSSS DDSS DDSS
-1.120574	DSSS DDSS DSDS	-0.1850461
-1.342423	DSSS DDSS DSSD
-0.7781513	DSSS DDSS DSSS	-0.1124222
-1.518514	DSSS DDSS SDDD
-1.217484	DSSS DDSS SDDS
-0.9744459	DSSS DDSS SDSS	-0.07496475
-1.342423	DSSS DDSS SSSS
-0.90309	SDDD DDSS DSDD
-0.60206	SDDD DDSS DSDS	-0.3785114
-1.267172	SDDS DDSS DDDS
-0.9661418	SDDS DDSS DDSS	-0.1217687
-1.09108	SDDS DDSS DSDD
-0.9661418	SDDS DDSS DSSS
-0.9661418	SDDS DDSS SDDS
-1.09108	SDDS DDSS SSDS
-1.267172	SDDS DDSS SSSS
-1.130334	SDSD DDSS DSDD
-1.130334	SDSD DDSS DSDS
-1.130334	SDSD DDSS DSSD
-0.9542425	SDSD DDSS DSSS
-0.9542425	SDSD DDSS SSSS
-1.511883	SDSS DDSS DDDS
-1.034762	SDSS DDSS DDSD	-0.01806925
-1.113943	SDSS DDSS DDSS
-1.210853	SDSS DDSS DSDD	-0.07357737
-1.113943	SDSS DDSS DSDS	-0.03535827
-1.335792	SDSS DDSS DSSD	-0.1346986
-0.7337321	SDSS DDSS DSSS	-0.05403002
-1.511883	SDSS DDSS SDSS
-1.335792	SDSS DDSS SSDD	-0.1706962
-1.335792	SDSS DDSS SSSS
-0.1760913	SSDD DDSS DSDS
-1.079181	SSDS DDSS DDDS
-1.079181	SSDS DDSS DDSS
-0.7781513	SSDS DDSS DSDS	-0.0518222
-0.9542425	SSDS DDSS DSSS
-1.079181	SSDS DDSS SDDS
-1.079181	SSDS DDSS SSSS	-0.1512677
-1.217484	SSSD DDSS DDSS
-1.041393	SSSD DDSS DSDS	-0.1480626
-1.041393	SSSD DDSS DSSS
-1.217484	SSSD DDSS SDDD
-1.217484	SSSD DDSS SDSS
-1.217484	SSSD DDSS SSDD
-1.217484	SSSD DDSS SSDS
-1.041393	SSSD DDSS SSSD	-0.1512677
-1.124939	SSSS DDSS DDDS	-0.1870866
-1.30103	SSSS DDSS DDSD
-1.30103	SSSS DDSS DSDS
-1.30103	SSSS DDSS DSSD
-1	SSSS DDSS DSSS	-0.1213045
-1.124939	SSSS DDSS SDDS	-0.1911799
-1.124939	SSSS DDSS SDSS	-0.1925594
-1.124939	SSSS DDSS SSDS
-0.9378521	DDDS DSDD DDDS	-0.1823402
-1.113943	DDDS DSDD DSDS
-1.113943	DDDS DSDD DSSS
-0.9378521	DDDS DSDD SSSD
-0.9378521	DDSS DSDD DDSD
-0.7160034	DDSS DSDD DSDS	-0.06902726
-1.113943	DDSS DSDD SDDS
-0.8129134	DDSS DSDD SDSS	-0.03218469
-0.60206	DSDS DSDD DDDS
-0.60206	DSDS DSDD SDDS
-0.90309	DSSD DSDD DSDS
-0.90309	DSSD DSDD SSDS
-1.255273	DSSS DSDD DDDS
-1.255273	DSSS DSDD DDSS
-0.7781513	DSSS DSDD DSSS	-0.1426675
-1.255273	DSSS DSDD SDDS
-1.079181	DSSS DSDD SDSD
-1.255273	DSSS DSDD SDSS
-1.255273	DSSS DSDD SSSD
-1	SDDS DSDD DSDS
-1	SDDS DSDD SDSS
-0.6532125	SDSD DSDD DSDS
-0.9378521	SDSS DSDD DDSS
-1.113943	SDSS DSDD DSDS
-0.9378521	SDSS DSDD SDSS	-0.1686032
-1.113943	SDSS DSDD SSDS
-0.7403627	SSDD DSDD DSDS
-0.8750613	SSDS DSDD DSSS
-0.5740313	SSDS DSDD SDSS	-0.03218469
-0.8750613	SSDS DSDD SSSD
-0.5563025	DDDD DSDS DDDS
-1.021189	DDDS DSDS DDDS	-0.1091445
-1.146128	DDDS DSDS DDSS	-0.1983677
-1.021189	DDDS DSDS DSDS
-1.021189	DDDS DSDS DSSD
-1.322219	DDDS DSDS DSSS
-1.322219	DDDS DSDS SDDS
-1.322219	DDDS DSDS SDSD
-1.322219	DDDS DSDS SDSS
-1.322219	DDDS DSDS SSSS	-0.4343693
-1	DDSD DSDS DDSS
-0.8750613	DDSD DSDS DSSS
-1.176091	DDSD DSDS SDSS
-1.176091	DDSD DSDS SSSD
-0.8750613	DDSD DSDS SSSS	-0.1033761
-1.028029	DDSS DSDS DDDS	-0.0501666
-1.50515	DDSS DSDS DDSD
-1.10721	DDSS DSDS DDSS	-0.08566339
-0.80618	DDSS DSDS DSDS	-0.05872247
-0.80618	DDSS DSDS DSSS	0.01663613
-1.028029	DDSS DSDS SDDS	-0.2662679
-1.329059	DDSS DSDS SDSD
-1.50515	DDSS DSDS SSSS
-1.054358	DSDD DSDS DDSS
-1.230449	DSDD DSDS DSDS
-1.230449	DSDD DSDS DSSD
-1.230449	DSDD DSDS DSSS	-0.4327021
-1.230449	DSDD DSDS SDDS
-1.230449	DSDD DSDS SDSS
-1.054358	DSDD DSDS SSSD
-0.9294189	DSDD DSDS SSSS
-1.130334	DSDS DSDS DDDS
-1.033424	DSDS DSDS DDSD
-0.9542425	DSDS DSDS DDSS	-0.06366908
-1.255273	DSDS DSDS DSDD
-1.255273	DSDS DSDS DSDS
-1.255273	DSDS DSDS DSSS
-1.255273	DSDS DSDS SDDD
-1.033424	DSDS DSDS SDSS	-0.0454754
-1.255273	DSDS DSDS SSDS
-1.041393	DSSD DSDS DDDS	-0.1944105
-1.217484	DSSD DSDS DSDS
-1.217484	DSSD DSDS DSSD
-0.916454	DSSD DSDS DSSS
-1.217484	DSSD DSDS SDDD
-0.916454	DSSD DSDS SDDS	-0.09913148
-1.217484	DSSD DSDS SDSS
-1.217484	DSSD DSDS SSDS	-0.4191293
-1.469822	DSSS DSDS DDSD
-1.168792	DSSS DSDS DDSS
-1.293731	DSSS DSDS DSDS
-1.293731	DSSS DSDS DSSD
-0.6916708	DSSS DSDS DSSS	0.003634289
-1.469822	DSSS DSDS SDDS
-1.293731	DSSS DSDS SDSD
-1.168792	DSSS DSDS SDSS	-0.2596373
-1.469822	DSSS DSDS SSDD
-1.168792	DSSS DSDS SSDS	-0.1083395
-1.469822	DSSS DSDS SSSD	-0.4423591
-1.469822	DSSS DSDS SSSS
-0.8750613	SDDD DSDS SDSS
-1.130334	SDDS DSDS DDSD
-1.130334	SDDS DSDS DDSS
-1.130334	SDDS DSDS DSDS	-0.4436975
-1.130334	SDDS DSDS DSSD
-0.8293038	SDDS DSDS DSSS	-0.09497552
-0.9542425	SDDS DSDS SSSS
-0.7781513	SDSD DSDS DDDS
-0.7781513	SDSD DSDS DSDS	-0.4349236
-1.342423	SDSS DSDS DDDS
-1.342423	SDSS DSDS DDSD
-0.7983546	SDSS DSDS DDSS	-0.1794644
-0.9444827	SDSS DSDS DSDS
-1.342423	SDSS DSDS DSSD
-0.8653014	SDSS DSDS DSSS	-0.03599765
-1.342423	SDSS DSDS SDDD	-0.4024876
-1.342423	SDSS DSDS SDSD
-1.166331	SDSS DSDS SDSS
-0.9294189	SSDD DSDS SDDS
-0.9542425	SSDS DSDS DDSS	-0.1735441
-1.130334	SSDS DSDS DSSD
-1.130334	SSDS DSDS DSSS
-1.130334	SSDS DSDS SDDD
-0.9542425	SSDS DSDS SDSD
-1.060698	SSSD DSDS DSSS
-1.060698	SSSD DSDS SDDS
-0.8846066	SSSD DSDS SDSS
-1.060698	SSSD DSDS SSSD
-0.9661418	SSSS DSDS DDDS
-1.09108	SSSS DSDS DDSS
-1.267172	SSSS DSDS DSDS
-1.267172	SSSS DSDS DSSD
-1.09108	SSSS DSDS DSSS
-1.09108	SSSS DSDS SDSD
-0.9661418	SSSS DSDS SDSS	-0.05897787
-0.9661418	SSSS DSDS SSSD	-0.09288253
-0.9294189	DDDD DSSD DSDS
-0.9294189	DDDD DSSD DSSS	-0.3565474
-0.9294189	DDDD DSSD SDSS
-0.79588	DDDS DSSD DDSS
-1.09691	DDDS DSSD DSDS
-1.09691	DDDS DSSD SDDS
-0.8129134	DDSD DSSD DDDS
-0.6368221	DDSD DSSD SDSS
-0.7403627	DDSS DSSD DDSS	-0.06596087
-0.916454	DDSS DSSD DSDS	-0.0900121
-0.7403627	DDSS DSSD SDSS	-0.0429465
-0.6690068	DSDD DSSD SSDS
-0.9294189	DSDS DSSD DDDS
-0.9294189	DSDS DSSD DDSS	-0.09108047
-0.9294189	DSDS DSSD DSDS
-1.230449	DSDS DSSD DSSS
-1.054358	DSDS DSSD SDDS
-1.113943	DSSS DSSD DDSD	-0.09691003
-1.290035	DSSS DSSD DDSS
-1.290035	DSSS DSSD DSDD
-1.113943	DSSS DSSD DSDS
-0.8920946	DSSS DSSD DSSS	-0.08354606
-1.113943	DSSS DSSD SSDS
-1.290035	DSSS DSSD SSSS
-0.6532125	SDDD DSSD DDSD
-0.79588	SDDS DSSD DDSS	-0.1026624
-1.09691	SDDS DSSD DSDD
-1.09691	SDDS DSSD DSDS
-0.8129134	SDSD DSSD DSSS
-0.8325089	SDSS DSSD DDDS	-0.144122
-1.230449	SDSS DSSD DDSD
-0.8325089	SDSS DSSD DSSS
-0.9294189	SDSS DSSD SSSD	-0.05435767
-1.054358	SDSS DSSD SSSS	-0.1522128
-0.90309	SSDD DSSD DDSD
-0.90309	SSDD DSSD SSSS
-0.8129134	SSDS DSSD DDDS
-1.113943	SSDS DSSD SDDS
-0.9378521	SSDS DSSD SDSS	-0.1618508
-0.9378521	SSDS DSSD SSSS
-0.9777236	SSSD DSSD DDSS
-0.9294189	SSSS DSSD DDSS
-0.9294189	SSSS DSSD SDSD
-0.9294189	SSSS DSSD SDSS
-1.113943	DDDD DSSS DDSS
-1.113943	DDDD DSSS DSSD
-1.113943	DDDD DSSS DSSS
-1.113943	DDDD DSSS SDSS
-1.352183	DDDS DSSS DDDD
-1.352183	DDDS DSSS DDDS	-0.4116197
-1.352183	DDDS DSSS DDSS
-1.352183	DDDS DSSS DSDD
-1.176091	DDDS DSSS DSDS
-1.176091	DDDS DSSS DSSD
-0.9542425	DDDS DSSS DSSS	-0.05711548
-1.051152	DDDS DSSS SDSS	-0.07234184
-1.352183	DDDS DSSS SSDS
-1.352183	DDDS DSSS SSSD
-1.217484	DDSD DSSS DDDS
-1.217484	DDSD DSSS DDSS
-1.217484	DDSD DSSS DSDD	-0.39794
-1.217484	DDSD DSSS DSDS
-1.041393	DDSD DSSS SDSS
-1.217484	DDSD DSSS SSSD
-1.556303	DDSS DSSS DDDD
-1.380211	DDSS DSSS DDDS
-1.556303	DDSS DSSS DDSD
-1.158363	DDSS DSSS DDSS
-1.380211	DDSS DSSS DSDD
-0.9542425	DDSS DSSS DSDS	-0.09127937
-1.158363	DDSS DSSS DSSD	-0.07438237
-1.255273	DDSS DSSS DSSS	-0.1171643
-1.380211	DDSS DSSS SDDD	-0.1492981
-1.158363	DDSS DSSS SDDS	-0.06338699
-1.255273	DDSS DSSS SDSD
-1.012234	DDSS DSSS SDSS	-0.09418715
-1.556303	DDSS DSSS SSDD
-1.158363	DDSS DSSS SSDS	-0.07918126
-1.079181	DSDD DSSS DDDD
-1.079181	DSDD DSSS DDDS
-1.079181	DSDD DSSS DDSD
-0.90309	DSDD DSSS DSDS	-0.1230946
-1.079181	DSDD DSSS DSSS
-1.380211	DSDS DSSS DDDD
-0.8573325	DSDS DSSS DDDS	-0.04364292
-1.255273	DSDS DSSS DDSD	-0.0881361
-1.012234	DSDS DSSS DDSS	-0.07255067
-1.012234	DSDS DSSS DSDS	-0.02618457
-1.380211	DSDS DSSS DSSD
-1.556303	DSDS DSSS DSSS
-1.556303	DSDS DSSS SDDD
-1.556303	DSDS DSSS SDDS
-0.9542425	DSDS DSSS SDSS	-0.02681994
-1.556303	DSDS DSSS SSDD
-1.556303	DSDS DSSS SSDS
-1.380211	DSDS DSSS SSSD	-0.1760913
-0.916454	DSSD DSSS DDSS
-1.217484	DSSD DSSS DSDS
-1.217484	DSSD DSSS DSSS
-0.615424	DSSD DSSS SDSS	-0.1122436
-1.217484	DSSD DSSS SSSD
-1.491362	DSSS DSSS DDDD
-1.31527	DSSS DSSS DDDS
-1.190332	DSSS DSSS DDSS	-0.0669468
-1.491362	DSSS DSSS DSDD
-1.190332	DSSS DSSS DSDS
-1.31527	DSSS DSSS DSSD
-0.9472936	DSSS DSSS DSSS	-0.09970291
-1.31527	DSSS DSSS SDDS
-0.9472936	DSSS DSSS SDSS	-0.0688813
-1.190332	DSSS DSSS SSDS
-1.31527	DSSS DSSS SSSD
-1.190332	DSSS DSSS SSSS	-0.05337399
-0.8846066	SDDD DSSS DDSS
-0.8846066	SDDD DSSS DSDS
-1.060698	SDDD DSSS SDDS
-0.9138138	SDDS DSSS DDDS
-0.9138138	SDDS DSSS DDSS
-0.9138138	SDDS DSSS DSDD
-1.311754	SDDS DSSS DSDS	-0.4466319
-1.311754	SDDS DSSS DSSD
-1.135663	SDDS DSSS SDDS
-1.311754	SDDS DSSS SDSS
-1.113943	SDSD DSSS DSSS
-0.8129134	SDSD DSSS SSDS	-0.08398014
-1.18327	SDSS DSSS DDDS
-1.4843	SDSS DSSS DDSD
-1.18327	SDSS DSSS DDSS	-0.1259247
-1.4843	SDSS DSSS DSDD
-1.08636	SDSS DSSS DSDS
-1.308209	SDSS DSSS DSSD
-0.8310874	SDSS DSSS DSSS	-0.04855039
-1.4843	SDSS DSSS SDDS
-1.4843	SDSS DSSS SDSD
-1.08636	SDSS DSSS SDSS	-0.07381651
-1.308209	SDSS DSSS SSDS
-1.4843	SDSS DSSS SSSD
-1.308209	SDSS DSSS SSSS	-0.1686032
-0.9542425	SSDD DSSS DDSD	-0.4191293
-0.9542425	SSDD DSSS SDSS
-0.819544	SSDS DSSS DDSS	-0.1554281
-1.217484	SSDS DSSS DSDD
-1.217484	SSDS DSSS DSDS	-0.3783671
-1.217484	SSDS DSSS DSSS
-1.041393	SSDS DSSS SDDS
-1.041393	SSDS DSSS SSSS	-0.1686032
-1.060698	SSSD DSSS DSDS
-1.060698	SSSD DSSS DSSS
-1.060698	SSSD DSSS SSDS
-1.102662	SSSS DSSS DDDD
-1.278754	SSSS DSSS DDDS
-0.8808136	SSSS DSSS DDSS	-0.02996324
-1.278754	SSSS DSSS DSSD
-0.8808136	SSSS DSSS DSSS
-1.278754	SSSS DSSS SDDS
-1.278754	SSSS DSSS SSSS
-0.9542425	DDDS SDDD DSDD
-0.9542425	DDDS SDDD SDSD
-0.9294189	DDSS SDDD DSSS
-0.8016323	DSDS SDDD DDSS
-0.9777236	DSDS SDDD DSDS
-0.8016323	DSDS SDDD DSSS	-0.1611509
-0.6532125	DSSD SDDD SDDD
-0.8129134	DSSS SDDD SSDS
-0.60206	SDSS SDDD DSSS	-0.1611509
-0.60206	SDSS SDDD SDSS
-0.60206	SSSD SDDD DDSS
-0.60206	SSSD SDDD DSSS
-1.060698	DDDS SDDS DDSS
-1.060698	DDDS SDDS DSDS
-0.8846066	DDDS SDDS SDDS
-1.060698	DDDS SDDS SSSS
-1.060698	DDSD SDDS DDSD
-1.060698	DDSD SDDS DSDD
-1.060698	DDSD SDDS DSSD
-1.060698	DDSD SDDS DSSS
-1.060698	DDSD SDDS SSSS
-1.342423	DDSS SDDS DDDS
-1.166331	DDSS SDDS DDSS
-1.166331	DDSS SDDS DSDS	-0.1522128
-0.8653014	DDSS SDDS DSSS	-0.1004266
-1.342423	DDSS SDDS SDDS
-1.166331	DDSS SDDS SDSS
-1.342423	DDSS SDDS SSDD
-1.041393	DDSS SDDS SSDS	-0.1150938
-1.166331	DDSS SDDS SSSD
-1.342423	DDSS SDDS SSSS
-0.9294189	DSDD SDDS SSSD
-0.9890046	DSDS SDDS DDSD
-1.290035	DSDS SDDS DDSS
-1.113943	DSDS SDDS DSDS
-1.113943	DSDS SDDS SDSD
-1.290035	DSDS SDDS SDSS
-0.9890046	DSDS SDDS SSDS
-1.290035	DSDS SDDS SSSD
-0.90309	DSSD SDDS DDSS
-0.90309	DSSD SDDS DSDS
-0.7269987	DSSD SDDS DSSS
-1	DSSS SDDS DDSS
-1.30103	DSSS SDDS DSSD
-1	DSSS SDDS DSSS	-0.08964668
-1.124939	DSSS SDDS SDDS
-1.30103	DSSS SDDS SDSD
-1.30103	DSSS SDDS SDSS
-1.30103	DSSS SDDS SSDS
-1.124939	DSSS SDDS SSSS
-0.6532125	SDDS SDDS DDSS
-0.9542425	SDDS SDDS SSDS
-0.8129134	SDSD SDDS DDSS
-1.176091	SDSS SDDS DDSS
-1.176091	SDSS SDDS DSDS
-1.176091	SDSS SDDS DSSD
-0.8750613	SDSS SDDS DSSS
-1.176091	SDSS SDDS SSDD
-1.176091	SDSS SDDS SSDS
-0.69897	SSDS SDDS DDSS
-0.39794	SSDS SDDS DSSS
-0.7269987	SSSD SDDS DDDD
-0.7269987	SSSD SDDS DSDD
-1	SSSS SDDS DSDS
-0.69897	SSSS SDDS SDSS	-0.1113659
-0.544068	DDDD SDSD SSDS
-1	DDDS SDSD DDDS
-1	DDDS SDSD DSSS
-0.7269987	DDSD SDSD DDSS
-1.041393	DDSS SDSD DDSS
-0.8653014	DDSS SDSD DSSS
-1.041393	DDSS SDSD SDDD
-0.8750613	DSDS SDSD DDDS
-1.176091	DSDS SDSD DDSD
-1.176091	DSDS SDSD DDSS
-1	DSDS SDSD SDSS
-1.176091	DSDS SDSD SSSS
-0.8750613	DSSD SDSD DDDD
-1.079181	DSSS SDSD DDSS
-1.079181	DSSS SDSD DSSS
-0.90309	DSSS SDSD SDDS
-1.079181	DSSS SDSD SDSS
-1.079181	DSSS SDSD SSSS
-0.845098	SSSS SDSD DDSS
-0.845098	SSSS SDSD DSSS
-0.90309	DDDD SDSS DSSD
-0.60206	DDDD SDSS DSSS	-0.1089862
-0.860338	DDDS SDSS DDSS	-0.1185445
-1.161368	DDDS SDSS DSDD
-1.161368	DDDS SDSS DSDS
-0.860338	DDDS SDSS DSSD	-0.09177038
-1.161368	DDDS SDSS DSSS
-1.161368	DDDS SDSS SSDS
-1.161368	DDDS SDSS SSSS
-1.113943	DDSD SDSS DDDS
-0.9378521	DDSD SDSS DDSS	-0.1870866
-0.9378521	DDSD SDSS DSDD
-1.113943	DDSD SDSS DSDS
-1.113943	DDSD SDSS DSSD
-1.113943	DDSD SDSS SDDS
-1.185637	DDSS SDSS DDDS
-1.361728	DDSS SDSS DDSD
-1.185637	DDSS SDSS DDSS	-0.1332113
-0.9637879	DDSS SDSS DSDS	-0.2016453
-1.361728	DDSS SDSS DSSS
-1.361728	DDSS SDSS SDDS
-1.185637	DDSS SDSS SDSS
-1.361728	DDSS SDSS SSDD
-0.9637879	DDSS SDSS SSSS
-0.6368221	DSDD SDSS DDSS	-0.1079054
-0.8129134	DSDD SDSS SDSS	-0.126384
-0.9378521	DSDD SDSS SSDS
-1.041393	DSDS SDSS DDDS	-0.1015459
-0.7403627	DSDS SDSS DDSS	-0.1303338
-0.8653014	DSDS SDSS DSSS	-0.08557546
-1.342423	DSDS SDSS SDDD
-1.166331	DSDS SDSS SDSS
-1.190332	DSSD SDSS DDDS
-0.8893017	DSSD SDSS DDSS
-0.8893017	DSSD SDSS DSDS	-0.07087709
-1.190332	DSSD SDSS DSSD
-1.01424	DSSD SDSS DSSS
-1.01424	DSSD SDSS SDDS
-1.190332	DSSD SDSS SSSD
-1.028029	DSSS SDSS DDDS	-0.1219017
-1.10721	DSSS SDSS DDSD
-1.10721	DSSS SDSS DDSS	-0.02050699
-1.50515	DSSS SDSS DSDD
-1.20412	DSSS SDSS DSDS	-0.07087709
-1.10721	DSSS SDSS DSSD	-0.1350391
-0.80618	DSSS SDSS DSSS	-0.0188497
-1.329059	DSSS SDSS SDDS	-0.1918855
-1.10721	DSSS SDSS SDSS
-1.329059	DSSS SDSS SSDS	-0.1760913
-0.9294189	SDDD SDSS DDSS
-1.113943	SDDS SDSS DDSS
-1.113943	SDDS SDSS DSSS
-1.113943	SDDS SDSS SDDS
-1.113943	SDDS SDSS SSSS
-1.021189	SDSD SDSS DDSS
-1.021189	SDSD SDSS DSDD
-1.021189	SDSD SDSS SSSS
-1.051152	SDSS SDSS DDDS	-0.1015459
-1.352183	SDSS SDSS DDSD
-1.352183	SDSS SDSS DDSS
-1.176091	SDSS SDSS DSDS
-1.352183	SDSS SDSS DSSD
-1.176091	SDSS SDSS DSSS
-1.352183	SDSS SDSS SDDD	-0.3521825
-1.352183	SDSS SDSS SDDS
-0.9542425	SDSS SDSS SDSS	-0.07918126
-1.352183	SDSS SDSS SSSD
-0.7269987	SSDD SDSS DDSS	-0.1332113
-0.7269987	SSDD SDSS SSDS
-1.146128	SSDS SDSS DDDS
-0.845098	SSDS SDSS DDSS
-0.845098	SSDS SDSS DSDS
-0.845098	SSDS SDSS DSSS
-0.9777236	SSSD SDSS DDSD
-0.9777236	SSSD SDSS DSDS
-0.9777236	SSSD SDSS SSSS
-0.916454	SSSS SDSS DDDS
-1.217484	SSSS SDSS DSDS
-0.7403627	SSSS SDSS DSSS
-0.916454	SSSS SDSS SDSS
-1.217484	SSSS SDSS SSDD
-0.7403627	DDDS SSDD DSSD
-0.5642715	DDDS SSDD SDSD
-0.544068	DDSD SSDD DSDS
-0.9542425	DDSS SSDD DSDS
-0.9542425	DDSS SSDD SDSS
-0.7781513	DDSS SSDD SSSS	0
-0.39794	DSDD SSDD DDDS
-0.845098	DSDS SSDD DDDS
-0.845098	DSDS SSDD SDSS
-0.6532125	DSSD SSDD DSSD
-0.8129134	DSSS SSDD DDDS
-0.6532125	SDDS SSDD DSDD
-0.8129134	SDSS SSDD SDSS	-0.3869447
-0.544068	SSSD SSDD SSSD
-0.9294189	SSSS SSDD SSDD
-0.7781513	DDDS SSDS DDDS
-0.7781513	DDDS SSDS DDSS
-1.079181	DDDS SSDS DSDD
-1.079181	DDDS SSDS SSSS
-0.8129134	DDSD SSDS DSSD
-0.6368221	DDSD SSDS SSDS
-1	DDSS SSDS DDDS
-1	DDSS SSDS DDSS	-0.1840602
-1.176091	DDSS SSDS DSDS
-0.69897	DDSS SSDS DSSS
-0.8129134	DSDD SSDS DSDS
-1.079181	DSDS SSDS DSDS
-0.90309	DSDS SSDS DSSD
-1.079181	DSDS SSDS SDDS	-0.2552725
-0.90309	DSDS SSDS SDSS	-0.154902
-0.90309	DSDS SSDS SSSS
-0.60206	DSSD SSDS DDSS	-0.07135591
-1	DSSD SSDS DSDS
-1	DSSD SSDS SSSS
-1.051152	DSSS SSDS DDDS	-0.09497552
-0.8750613	DSSS SSDS DDSS	-0.007968932
-1.352183	DSSS SSDS DSDS
-1.352183	DSSS SSDS DSSD
-1.176091	DSSS SSDS DSSS
-1.176091	DSSS SSDS SDDD
-1.176091	DSSS SSDS SDSS
-1.352183	DSSS SSDS SSSS
-1.161368	SDDS SSDS DDSS
-1.161368	SDDS SSDS DSDS
-0.9852768	SDDS SSDS DSSS
-0.9852768	SDDS SSDS SDSS	-0.154902
-1.161368	SDDS SSDS SSSS
-0.8129134	SDSD SSDS DDSD
-1.176091	SDSS SSDS DDSD
-1	SDSS SSDS DSSD
-1	SDSS SSDS SDSS
-1.176091	SDSS SSDS SSDS
-1	SDSS SSDS SSSD
-0.7596679	SSDS SSDS DDDS
-1.060698	SSDS SSDS SDSS
-1.060698	SSDS SSDS SSDS
-0.60206	SSSD SSDS SDSS	-0.4101745
-0.60206	SSSD SSDS SSSS
-1.161368	SSSS SSDS DSDS
-0.860338	SSSS SSDS DSSS	-0.07477214
-0.9852768	SSSS SSDS SDSD
-1.161368	SSSS SSDS SSDS
-0.8750613	DDDS SSSD SSSS
-0.8750613	DDSD SSSD DDSS
-1	DDSS SSSD DDDD
-1	DDSS SSSD DDSS
-1	DDSS SSSD DSSD
-0.8239087	DDSS SSSD SDSS
-1	DDSS SSSD SSSS
-0.9542425	DSDD SSSD DDSS
-0.9542425	DSDD SSSD SSSS
-1.113943	DSDS SSSD DDSS
-0.9378521	DSDS SSSD DSDS
-1.113943	DSDS SSSD DSSD
-0.7160034	DSDS SSSD DSSS
-0.7201593	DSSD SSSD DDSS
-1	DSSS SSSD DDDS	-0.1492981
-1	DSSS SSSD DDSS
-1	DSSS SSSD DSDD
-1	DSSS SSSD DSDS
-1	DSSS SSSD DSSS
-0.8239087	SDDS SSSD DDSD
-1	SDDS SSSD DDSS
-1	SDDS SSSD DSSD
-0.8129134	SDSS SSSD DSSS
-0.544068	SSSD SSSD DDSD	-0.4101745
-0.7403627	SSSS SSSD SDDS
-1.124939	DDDS SSSS DDSS
-1	DDDS SSSS DSDS	-0.09644026
-0.90309	DDDS SSSS DSSS
-1.30103	DDDS SSSS SDSS
-1.079181	DDSD SSSS DDSS
-1.079181	DDSD SSSS SDSS
-1.124939	DDSS SSSS DDDS
-0.8239087	DDSS SSSS DDSS
-1.124939	DDSS SSSS DSDS
-1.30103	DDSS SSSS DSSS
-1.30103	DDSS SSSS SDDS
-1.124939	DDSS SSSS SDSS
-1.124939	DDSS SSSS SSDS
-1.30103	DDSS SSSS SSSS
-1.20412	DSDS SSSS DDDS	-0.4074853
-1.028029	DSDS SSSS DDSS
-1.20412	DSDS SSSS DSSD
-1.028029	DSDS SSSS DSSS
-1.028029	DSDS SSSS SDSS
-1.130334	DSSD SSSS DDDS
-0.8293038	DSSD SSSS DDSS	-0.1122698
-1.130334	DSSD SSSS DSDS
-1.130334	DSSD SSSS DSSD
-1.130334	DSSD SSSS DSSS
-1.113943	DSSS SSSS DSDD
-0.9378521	DSSS SSSS DSDS
-0.9378521	DSSS SSSS SDSS	-0.5149099
-0.7160034	DSSS SSSS SSDD	-0.05478682
-1.113943	DSSS SSSS SSDS
-1.021189	SDDS SSSS DDDS	-0.4074853
-1.021189	SDDS SSSS DSSS
-1.021189	SDDS SSSS SSDS
-0.69897	SDSD SSSS DSDS
-0.8750613	SDSD SSSS SDDS
-1.176091	SDSS SSSS DDSS
-1.176091	SDSS SSSS DSDS
-1.176091	SDSS SSSS DSSD
-1	SDSS SSSS DSSS
-1.176091	SDSS SSSS SDSD
-1.176091	SDSS SSSS SDSS
-1.176091	SDSS SSSS SSDS
-0.39794	SSDD SSSS DSSS
-1.113943	SSDS SSSS DDSD
-0.9378521	SSDS SSSS DDSS
-1.113943	SSDS SSSS SDDS
-0.9378521	SSDS SSSS SSSS
-1	SSSD SSSS DDSS
-1	SSSD SSSS SSDS
-0.5563025	SSSS SSSS DSDS
-0.9542425	SSSS SSSS DSSS
-0.7781513	SSSS SSSS SDSS
-0.9542425	SSSS SSSS SSDS

\4-grams:
-0.1760913	DSDS DDDS DDDD DSDS
-0.6532125	DSSS DDSS DDDD SDSS
-0.39794	DDSS DDDS DDDS SSSS
-0.8129134	DDSS DDSS DDDS DSSS
-0.39794	SSSS DDSS DDDS DDDS
-0.39794	DDDS DSDD DDDS DDDD
-0.544068	DDDS DSDS DDDS DSDD
-0.7403627	DDSS DSDS DDDS DDSD
-0.39794	DSSD DSDS DDDS SDSS
-0.4259687	SDSS DSSD DDDS DSDS
-0.1760913	DDDS DSSS DDDS SSSS	-0.4045706
-0.9542425	DSDS DSSS DDDS DDSS
-0.9542425	DSDS DSSS DDDS SDDS
-0.544068	DSDS SDSS DDDS DDDS
-0.5228788	DSSS SDSS DDDS DSDD	0
-0.544068	SDSS SDSS DDDS DSDS
-0.544068	DSSS SSDS DDDS SDDD
-0.39794	DSSS SSSD DDDS DSDD
-0.1760913	DSDS SSSS DDDS DDDS
-0.1760913	SDDS SSSS DDDS DDDS
-0.1760913	SDSS DDSD DDSD SDDS
-0.7403627	SDSS DDSS DDSD SDSS
-0.39794	DSSS DSSD DDSD SDSS
-0.544068	DSDS DSSS DDSD DSDS
-0.1760913	SSDD DSSS DDSD DSDS
-0.1760913	SSSD SSSD DDSD DSDS	0
-0.39794	DDSS DDDS DDSS DSDS
-0.6532125	DSSS DDDS DDSS DSDS
-0.544068	SDSS DDDS DDSS DDSD
-0.544068	SDSS DDSD DDSS DSDD
-0.39794	DDSD DDSS DDSS SDDS
-0.544068	DSDD DDSS DDSS DDDS
-0.544068	SDDS DDSS DDSS DSDS
-0.39794	DDDS DSDS DDSS DDDS
-0.6532125	DDSS DSDS DDSS SDSD
-0.7403627	DSDS DSDS DDSS SSDS
-0.7403627	SDSS DSDS DDSS DSSS
-0.5642715	SDSS DSDS DDSS SSSS
-0.39794	SSDS DSDS DDSS SDDS
-0.7403627	DDSS DSSD DDSS SSSS
-0.544068	DSDS DSSD DDSS DSDS	-0.2730013
-0.544068	SDDS DSSD DDSS DSSS
-0.7781513	DSDS DSSS DDSS DSSS	-0.39794
-0.7781513	DSDS DSSS DDSS SSSS
-0.544068	DSSS DSSS DDSS DSSS
-0.544068	SDSS DSSS DDSS DSSD
-0.4259687	SSDS DSSS DDSS SDSS
-0.6532125	SSSS DSSS DDSS DSSS
-0.544068	DDDS SDSS DDSS DSDD
-0.39794	DDSD SDSS DDSS DDSS
-0.39794	DDSS SDSS DDSS DSSS
-0.69897	DSDD SDSS DDSS DSSS
-0.69897	DSDD SDSS DDSS SSDD	-0.2552725
-0.8129134	DSDS SDSS DDSS DDSD
-0.6368221	DSDS SDSS DDSS DSDS	-0.1127043
-0.6532125	DSSS SDSS DDSS DSSS
-0.39794	SSDD SDSS DDSS DSSS
-0.39794	DDSS SSDS DDSS SDDS
-0.6532125	DSSD SSDS DDSS DDDS
-0.7403627	DSSS SSDS DDSS DSDS
-0.544068	DSSD SSSS DDSS SSDS
-0.39794	SDSS DDDS DSDD SSSD
-0.544068	SDSS DDSS DSDD SDSS
-0.1760913	DDSD DSSS DSDD DSSS	-0.3802113
-0.1249387	DDSS DDDD DSDS DDDS
-0.6532125	DDDS DDDS DSDS SDSS
-0.544068	DSSS DDSD DSDS SSSS
-0.1760913	SSSD DDSD DSDS DSSS
-0.1760913	DSDS DDSS DSDS DDDS
-0.4259687	DSSD DDSS DSDS DSDS
-0.60206	DSSS DDSS DSDS DDSS
-0.60206	DSSS DDSS DSDS DSSS
-0.4771213	SDDD DDSS DSDS DSDS
-0.4771213	SDDD DDSS DSDS SDSD
-0.6532125	SDSS DDSS DSDS DSDS
-0.7403627	SSDS DDSS DSDS DDSS
-0.39794	SSSD DDSS DSDS DSSS
-0.6532125	DDSS DSDD DSDS SSSD
-0.9294189	DDSS DSDS DSDS DDSS
-0.9294189	DDSS DSDS DSDS DSSS
-0.9294189	DDSS DSDS DSDS SDSS
-0.1760913	SDDS DSDS DSDS DDDS
-0.1760913	SDSD DSDS DSDS DDSD
-0.544068	DDSS DSSD DSDS SDDS	-0.3309932
-0.845098	DDSS DSSS DSDS SDSD
-0.845098	DDSS DSSS DSDS SSDS
-0.39794	DSDD DSSS DSDS DSSS
-0.60206	DSDS DSSS DSDS DSSS
-0.1760913	SDDS DSSS DSDS DDSS
-0.1760913	SSDS DSSS DSDS DSSS
-0.39794	DDSS SDDS DSDS DSSS
-0.60206	DDSS SDSS DSDS DSSS
-0.60206	DDSS SDSS DSDS SDSS
-0.544068	DSSD SDSS DSDS DDSS
-0.544068	DSSS SDSS DSDS DDSS
-0.544068	DDDS SSSS DSDS DDDS
-0.7403627	DSSS DDDS DSSD SDDS
-0.1760913	DDSS DDSS DSSD SDSS
-0.1760913	DSDS DDSS DSSD DSDS
-0.1760913	DSSD DDSS DSSD SDSS
-0.39794	SDSS DDSS DSSD DDSS
-0.6532125	DDSS DSSS DSSD DSDS
-0.544068	DDDS SDSS DSSD SSSD
-0.4259687	DSSS SDSS DSSD DDDS	-0.01772878
-0.1760913	SDDS DDDS DSSS DSSS
-0.69897	DDSS DDSS DSSS DSDD
-0.69897	DDSS DDSS DSSS DSDS
-0.9542425	DSSS DDSS DSSS DDSS
-0.9542425	DSSS DDSS DSSS SDDS
-0.7781513	DSSS DDSS DSSS SSDS
-0.8239087	SDSS DDSS DSSS DSDS
-1	SDSS DDSS DSSS SDSD
-1	SDSS DDSS DSSS SDSS
-0.544068	SSSS DDSS DSSS DSSS
-0.69897	DSSS DSDD DSSS DDDD
-0.69897	DSSS DSDD DSSS DDSD
-0.9777236	DDSS DSDS DSSS DDDS
-0.1760913	DSDD DSDS DSSS DDSS
-1.021189	DSSS DSDS DSSS DDDD
-1.021189	DSSS DSDS DSSS DDDS
-1.021189	DSSS DSDS DSSS SDSS
-0.544068	SDDS DSDS DSSS SDSS
-0.7403627	SDSS DSDS DSSS SDSS
-0.1760913	DDDD DSSD DSSS SDSS
-0.4259687	DSSS DSSD DSSS SDSS	-0.1079054
-0.6532125	DDDS DSSS DSSS DSSS
-0.544068	DDSS DSSS DSSS SSSS
-0.7781513	DSSS DSSS DSSS SDDS
-0.7781513	DSSS DSSS DSSS SDSS	-0.39794
-0.90309	SDSS DSSS DSSS DSSS
-0.90309	SDSS DSSS DSSS SSSD
-0.39794	DSDS SDDD DSSS DSDS
-0.39794	SDSS SDDD DSSS DDSS
-0.69897	DDSS SDDS DSSS DDDS
-0.69897	DDSS SDDS DSSS DDSS
-0.544068	DSSS SDDS DSSS DDDS
-0.544068	DDDD SDSS DSSS DSDS
-0.5228788	DSDS SDSS DSSS DSSS
-0.9777236	DSSS SDSS DSSS DDDS
-0.544068	SSSS SSDS DSSS DDSS	-0.2730013
-0.1760913	DSDS DDDS SDDD DSDD
-0.1760913	SDSS DSDS SDDD DDSS
-0.39794	DDSS DSSS SDDD SSDS
-0.1760913	SDSS SDSS SDDD SDSS
-0.39794	DDDS DDSD SDDS DSSS
-0.69897	DSDS DDSS SDDS SSDD
-0.69897	DSDS DDSS SDDS SSDS
-0.39794	DSSD DDSS SDDS DSSS
-0.39794	SSSS DDSS SDDS SSSD
-0.6532125	DDSS DSDS SDDS DDSD
-0.4771213	DDSS DSDS SDDS SDSD
-0.544068	DSSD DSDS SDDS SSDS
-0.6532125	DDSS DSSS SDDS DSSS
-0.39794	DSSS SDSS SDDS DSDS
-0.1760913	DSDS SSDS SDDS DSSS
-0.39794	DDDS DDSD SDSD DDSS
-0.60206	DSSS DDSS SDSS DSDS	-0.09691003
-0.39794	SSSS DDSS SDSS SDSS
-0.544068	DDSS DSDD SDSS DDSS
-0.39794	SDSS DSDD SDSS SSDS
-0.544068	SSDS DSDD SDSS DDSS
-0.6532125	DSDS DSDS SDSS DSSS
-0.30103	DSSS DSDS SDSS DDDS	-0.07572071
-0.544068	SSSS DSDS SDSS DDSS
-0.7403627	DDSS DSSD SDSS DSSS
-0.39794	SSDS DSSD SDSS DSDS
-0.544068	DDDS DSSS SDSS DSSS
-0.7781513	DDSS DSSS SDSS DDDS	-0.3222193
-0.7781513	DDSS DSSS SDSS SDSS
-0.8750613	DSDS DSSS SDSS DSSD
-0.6368221	DSSD DSSS SDSS DSSS
-0.8129134	DSSD DSSS SDSS SDDS
-0.7781513	DSSS DSSS SDSS DSDS
-0.7781513	DSSS DSSS SDSS DSSS
-0.6532125	SDSS DSSS SDSS DDSD
-0.544068	SSSS SDDS SDSS DDSS
-0.544068	DSDD SDSS SDSS SSSD
-0.6532125	SDSS SDSS SDSS DSSS
-0.1760913	SDSS SSDD SDSS SSDS
-0.39794	DSDS SSDS SDSS DDSS
-0.39794	SDDS SSDS SDSS DSDS
-0.1760913	SSSD SSDS SDSS DSSS
-0.1249387	DSSS SSSS SDSS DSSS
-0.1760913	SDSD DDDS SSDD DSSD
-0.39794	SDSS DDSS SSDD SDSS
-0.6532125	DSSS SSSS SSDD SSDD
-0.1249387	DSDS DDDS SSDS DDSS
-0.39794	SDSS DDDS SSDS DDDS
-0.39794	DSDS DDSS SSDS DSSS
-0.1760913	DSSD DSDS SSDS SSSS
-0.544068	DSSS DSDS SSDS DSDS
-0.6532125	DDSS DSSS SSDS DSSS
-0.544068	SDSD DSSS SSDS DDSS
-0.544068	DDSS SDDS SSDS DDSS
-0.39794	DSSS SDSS SSDS SDSS
-0.39794	SSSD DDSS SSSD SDSS
-0.1760913	DSSS DSDS SSSD DDSS
-0.544068	SSSS DSDS SSSD DSDS
-0.544068	SDSS DSSD SSSD DDSS
-0.39794	DSDS DSSS SSSD DDSS
-0.8129134	DSSS DDDS SSSS DSDS
-0.39794	SSDS DDSS SSSS DDSS
-0.1760913	DDDS DSDS SSSS DDSS
-0.544068	DDSD DSDS SSSS DSSS
-0.39794	SDSS DSSD SSSS DDSS
-0.544068	DSSS DSSS SSSS SSDD
-0.39794	SDSS DSSS SSSS SDSS	0.1249388
-0.39794	SSDS DSSS SSSS DSDS
-0.39794	DDSS SSDD SSSS DSSS

\5-grams:
-0.39794	DSSS SDSS DSSD DDDS DSDS
-0.39794	DSSS DSDS SDSS DDDS DDDS
-0.1760913	DDSS DSSS SDSS DDDS DSDD
-0.1760913	SSSS SSDS DSSS DDSS SDSS
-0.39794	DSSS SDSS DDDS DSDD SSSD
-0.1760913	SSSD SSSD DDSD DSDS DSSS
-0.1760913	DSDS DSSD DDSS DSDS DSDS
-0.39794	DSDS SDSS DDSS DSDS DSDS
-0.39794	DSSS DDSS SDSS DSDS SDSS
-0.1760913	DSDS DSSS DDSS DSSS SSDS
-0.1760913	DDSD DSSS DSDD DSSS DDDD
-0.1760913	DDSS DSSD DSDS SDDS SSDS
-0.39794	DSSS DSSD DSSS SDSS DSSS
-0.1760913	DSSS DSSS DSSS SDSS DSDS
-0.1760913	SDSS DSSS SSSS SDSS DSSS
-0.1760913	DSDD SDSS DDSS SSDD SDSS
-0.1760913	DDDS DSSS DDDS SSSS DSDS

\end\
